NeuralNetwork {weightsIH = [[-4.682928874733133e-2,7.708812070415844e-3,1.8561959377803837e-3,-3.186599762216634e-3,2.5946916536576457e-2,-7.224351945398306e-3,-4.370368554367605e-2,-7.7372168082410426e-3,2.8915074868391476e-2,1.0524668261582467e-2,2.0127608178565654e-2,-2.9757267834719808e-2,1.5167928854690974e-3,5.803730822062472e-3,-2.353581138696966e-2,3.930372891362696e-2,-3.644595674038314e-2,1.483338156249694e-2,-1.6065559705914365e-2,-2.9475383321065703e-2,1.601619438873216e-2,3.921931093618481e-2,-3.451435248827338e-2,-8.371851314295374e-3,3.269952827042244e-2,-8.464372391962785e-3,-4.376679433193856e-2,6.196238672447073e-3,2.8473421860134438e-2,-3.28715453967202e-2,3.95427483148695e-2,-3.1308913202220214e-3,-1.3502738308310487e-2,1.822970068805461e-2,4.348751317564444e-2,4.029404464894696e-2,1.7500350886822443e-2,-3.524665575582866e-2,2.4896144377817044e-3,2.395652397416228e-2,-4.586194012160572e-2,-2.2170959596771664e-2,7.534632557899575e-2,2.9604531236771398e-2,-1.8711659917489208e-2,6.529248726205032e-2,7.621237016662468e-3,3.589214087693832e-2,-2.1741180012084086e-2,-1.314635275648612e-2,-2.8734570926125944e-2,-3.728546057969536e-2,3.359630218094805e-2,-1.3468367176494028e-2,-4.0001104647939306e-4,4.073977068660787e-3,-1.063272112859711e-2,-1.3921151422200208e-2,-1.4892753651489959e-2,-5.811054324396644e-2,-7.59732041583984e-2,-2.2716788133798595e-2,4.650240104788517e-2,2.4231391683686286e-2,6.962865089567316e-2,8.301662617146259e-2,6.341371504984747e-2,0.1012673366390199,4.4666536143392256e-2,1.690323139696668e-2,3.336609954707198e-2,5.200172785386261e-2,0.1363749523239976,0.15188359215975933,0.20275053781780802,4.771386674242551e-2,1.2792411605374802e-2,4.25176660563682e-2,4.7575574691982495e-2,1.8329014799167695e-2,-5.256089429877974e-2,1.208349215507557e-3,2.399500822748644e-2,3.4946574627080056e-2,4.1967167997343496e-3,-4.66223225317953e-2,-1.727630072136108e-2,-4.894575061385335e-2,-3.266653254485411e-2,-3.666717872313984e-2,5.7975515465478446e-2,8.77861853413752e-2,8.431301779102734e-2,0.1940739307325381,0.26891050475607287,0.19322572681117958,0.1045199633146821,2.8879164413462423e-2,1.9629769224745845e-2,0.13525429159453026,8.387321764603407e-2,4.1518968878451364e-2,9.665378260329545e-2,3.987169611209044e-2,0.1658496782087332,0.15241467230700467,0.11243013818304702,1.6686905992542224e-2,-6.676971564199079e-2,-2.4413151341184255e-2,3.552301653425265e-2,-1.1463344042831482e-2,2.7622825843428156e-5,1.8902115129737513e-2,4.141866102824904e-3,0.10698298935820265,3.0555246751688903e-2,7.59493026764658e-2,0.10578434471178232,0.11194354907926463,0.20353646087396904,0.2653073977017127,0.2822665324386148,0.20796682971077574,5.824072841693758e-3,-0.14541569919061734,-8.563757055356079e-2,6.969426644305453e-2,-6.493035098371501e-2,-0.1917916304973453,8.16927072583575e-3,5.127790594455276e-2,0.1841561935784466,0.17019048131886702,6.423276925838754e-2,3.0632819542550416e-2,-3.0529389178107776e-2,-4.775429050680099e-2,4.234100300589573e-2,1.317905906395493e-2,4.218360830064596e-3,-1.135642604611935e-2,2.5386172932672774e-2,-2.1278813272368417e-3,-3.353510997221211e-2,7.178247715441484e-2,2.1296423038526108e-2,2.9033690914784183e-2,8.1844142654094e-2,0.15681105616353477,0.1292728884960962,4.702242887398913e-2,-4.3852976847702514e-2,-9.547357604379972e-2,-2.417460981531729e-2,-5.375327305803398e-2,-0.39594192876332085,-0.3233648309754215,8.109573057689115e-2,-2.5907603092557935e-2,-1.1125797945566592e-2,0.17675461617276286,0.14337342615265447,0.240535146117276,3.595107394382751e-4,-3.0133032521347438e-2,-1.574606809968121e-2,-4.137491372228816e-3,3.2924304319211915e-2,4.774939652250299e-3,2.9681247621712474e-2,0.141014331769229,0.15508290955392104,0.10751844705290617,7.331877348931665e-2,0.1098513791166405,-2.72059769117292e-2,8.161024753182836e-2,0.10559413563526807,7.695339984027447e-2,0.13826989218847413,0.18493981690977354,0.18225106486188575,-8.674440213803855e-3,-1.5871962690902524e-4,4.624699215337579e-2,0.13004574944735287,-0.11311412184040859,3.831522187314462e-2,0.172531205133278,7.571874303044289e-2,0.4047995703378764,0.1310128706729211,2.0992456726105224e-2,5.548909367451756e-2,4.0137617834408446e-2,9.364133798165858e-3,3.961183576324939e-2,8.711766523848855e-2,0.1690801153128558,0.20028354366122464,6.851749616767115e-2,0.13868810471299076,0.11363744295456672,6.304556806860054e-2,3.606317128672383e-2,-1.2797495077932545e-2,-4.125988855668299e-2,6.2474636833560956e-2,0.13062642149814815,7.251111772606494e-2,0.10979029962813684,3.4207592548061934e-4,-0.12611680786787113,-0.14334840182967623,-6.411397166143004e-2,-0.15333159173226077,1.9395909024592956e-2,9.497719378949858e-2,0.3599273097973021,0.15156443838546463,0.14467034891755487,2.087006138127155e-2,1.4024903848691677e-3,-3.931069302979245e-2,-4.330546467913466e-2,-4.983231735183069e-2,7.782504535279486e-2,0.10318453704221799,0.13458879389158288,0.20266877428947716,0.10413649304897847,0.1331991362630975,-0.108186774416169,-0.16477662436698218,-0.15678800462100403,-1.4785350143289385e-2,-6.949602073440597e-2,-3.9648877842135506e-2,3.624107757510223e-2,6.225813198843706e-2,-1.3533063009130104e-2,3.714795764277232e-2,-8.037739143421185e-2,-0.2938726705608504,1.0362587139514257e-3,-6.338776485323289e-2,0.12941133494044757,-1.5861850576306458e-2,-1.1082867077883897e-2,-1.2155546816677505e-2,2.590831237792278e-2,3.983771815067143e-2,1.9970996924161384e-2,7.840537612022817e-2,8.225319621632862e-2,5.4765784374875094e-2,6.343140072905e-2,0.13493961274168512,8.796421586898996e-2,0.12430917482206598,-7.301344566324017e-2,-1.5298030540290757e-2,-0.14166188685842077,7.049968851017331e-2,-1.544816262210886e-2,-2.990688013503194e-2,0.20148802190394835,0.19196283747188003,0.10316186212118279,2.654696837802105e-2,-6.886247081272952e-2,-0.18763753493602395,3.0163125488661853e-2,-1.845963882130181e-2,8.120504572851676e-2,0.10020051866879118,-2.850378473687115e-2,1.2431701495187474e-2,-3.4320956621695944e-2,-3.4557160434986876e-2,-1.0716917546497687e-2,7.51219482713787e-2,-2.279273050531234e-2,-3.318287647183546e-2,0.11419367828432855,0.2587538680068642,8.395454446601243e-2,1.7429449198940322e-2,-0.16038242509243456,9.972359210358772e-2,0.13810750789838183,0.26586044854046414,0.11830712943241768,2.7368096130090256e-2,0.28106203851373035,0.2133658187659603,4.4137806794226186e-2,-0.10217858686965342,-4.447858617162811e-4,-6.506620650775637e-2,-9.458757060993182e-2,-0.14515940277683032,8.508815600480536e-2,-6.406249016960727e-3,-7.025058083862867e-4,-1.5134238800089395e-2,-9.678079003560424e-3,-4.4974698995577135e-2,3.3594581848680805e-2,-1.4060468098364696e-2,-9.716645024696072e-2,-3.005754913396751e-2,7.722006618998198e-2,0.19004253109242786,-0.12726137784582287,-7.04923542447567e-2,-7.55998208819353e-2,-2.86009348520097e-2,-0.16977376270283318,-7.469030131314096e-2,-7.516724328547508e-2,-1.1223161798516906e-2,9.634246063897449e-2,8.611827614955554e-2,6.733600381347876e-2,-5.8621555751949855e-2,-5.9130098331987714e-2,-0.12025209783207332,-0.10634061671101405,-1.2988027830290648e-2,9.415313309909672e-2,7.27039229523237e-2,5.493296624018109e-2,-1.2683264861553627e-2,-1.3052855181966997e-2,2.846435712329215e-2,-6.357162142355214e-3,-8.673566915911117e-3,2.100755674460801e-2,5.038740670970272e-3,0.10995745371349218,0.13054021815343642,-0.11639133931458812,-7.28772687764056e-2,-0.190143055388484,-9.935053302984277e-2,-6.070682303994026e-2,-2.940257106149673e-2,-1.9747409791068506e-2,7.626827769049817e-2,3.696208956182756e-2,8.143132674159635e-2,0.14151102434209406,-0.10911025807306356,-0.1625353030404275,-0.1923071585733727,-1.3217710321770828e-2,-6.913017306268333e-2,2.187007986593121e-2,0.12917907991490912,0.15914193255578618,-2.219223542520203e-2,-2.4485127148774738e-2,3.785693891580845e-2,2.9064609843826673e-2,-2.227375963965569e-2,-7.012190419111153e-2,2.9296866188587685e-2,7.299755878906629e-2,1.805638479194147e-2,5.133545186831217e-2,-2.313987299507323e-3,-0.1658583116329217,-0.13034337313417718,-2.624319141376221e-2,-3.0585070115410687e-3,3.493272299323363e-2,0.12450163639129741,-2.7386979804457728e-3,0.116948343792581,0.14039763398520114,-4.165032364291723e-2,-0.19711067654623146,-0.20523750576565897,-2.0581011194515893e-2,-5.056063346037702e-2,-0.10846769488545911,-2.784135018935912e-2,0.10913650231201426,1.985185378253572e-2,-2.6244873246815067e-2,1.697114969998189e-2,7.067132284572592e-3,-9.348390214070097e-2,-0.12468617015204583,-4.208707695795647e-3,-3.124115352281676e-2,-0.1088756324034344,3.9414007006730464e-2,8.537631724410804e-3,-5.443904450254454e-2,-0.15301023222445564,-8.788003800672488e-2,-5.847080399744905e-2,-7.651406601651405e-2,0.1536385978812228,8.74345644113623e-3,0.1363587279089426,0.3025468555189929,0.1373679850594355,-0.15847272688479502,-0.17535249404756534,0.1726644535527071,-2.1713544113279876e-2,-0.21075098522213528,-0.19574790583971388,7.234211714295153e-3,-4.040379250900837e-2,4.04382589635782e-2,2.1974350786110316e-2,2.978101403829328e-2,-0.1118953786718471,-0.20616593977762698,-0.14807683838645838,-4.4018080036254986e-2,-1.943996950875387e-2,-0.14394217612853225,-6.139355559477563e-2,-6.314147545758268e-2,-6.745857207985208e-2,-2.8942753493116858e-2,-0.10964801582274851,-4.695748977313943e-2,-6.412468791390295e-4,3.403627114064453e-2,0.12630963355776562,0.24244210517928877,-1.3409066419738618e-2,-0.126338708771778,5.64158670987237e-2,0.2374937488074577,-0.13710217810359773,-0.16193600445356213,-0.1310416056821209,-5.131218353540288e-2,9.769741553798717e-3,-3.861341062650493e-2,-6.802422603228786e-3,2.6509503684499898e-2,-0.2201069795935204,-0.231355805348772,-0.13659954283528492,-4.386458171668304e-2,-3.5947201860554376e-2,-0.18047693194265793,-0.12892032736643658,-0.20234580556715115,-0.13251302125387648,-3.208246437618049e-2,-0.17167683512043458,-0.10122975786240074,5.0720470991595774e-2,0.11949498102843331,0.19709715922304405,0.11083206855253169,-4.660158429949778e-2,-6.356002066833606e-2,2.4011292809822515e-2,-8.297206061725884e-2,-0.24957023643729417,-0.15397245532014492,-0.11592515690258194,4.6745758007902746e-2,-2.1937352817010224e-3,-3.731887416170727e-2,2.7205027902778397e-2,-4.395240407007557e-2,-0.1929138536092353,-0.2604904267751647,-0.1467337353838784,-9.597711018154037e-2,-7.572755032358058e-2,-0.1522061162538483,-0.23016355429325064,-0.19232991216758943,-7.006736456918365e-2,-2.0655754990620386e-2,-4.199120822922121e-2,-3.350484551474696e-3,1.995267903572592e-3,2.3246579065558843e-2,8.584433995971129e-2,-1.5506410484103034e-2,0.1070971173275371,0.1352747433489087,7.09887639014065e-2,-0.28826788935087294,-0.2591338263723684,-0.11022072054845593,6.4810951734691515e-3,6.73217981444878e-2,4.321207359579119e-2,4.207263849462127e-2,-3.2709036378806553e-3,-1.5509360066215973e-2,-0.1320488820185292,-0.19086860122958965,-0.14502809352155202,-0.15937862067419115,-0.13334090887208436,-0.2115254523575629,-0.2829641749645656,-0.3647490561366156,-0.17578563769470057,3.3668525689109385e-2,0.1409281133180488,6.673445708769245e-2,3.9731537003074295e-2,-0.23336224928544183,-0.17600194771868774,-6.852871844173801e-2,-5.047289695779553e-2,5.262044261872185e-2,-9.389806847392324e-2,-0.19332270137537103,-0.1234113756614303,-0.14612292142583225,-9.416642834022597e-2,0.14821277761099028,-2.454088913839367e-2,-4.1088209074628006e-2,3.164240019854754e-2,3.2075366135551698e-3,-9.20908176452801e-2,-5.2883731790667805e-2,-0.16129721424757015,-0.252937002796941,-0.22721566760833342,-0.12754291731719877,-2.7100430212693795e-2,5.6705961552636366e-2,0.14485761239355274,9.910814463270241e-2,0.1333503652884486,0.2744286885456657,9.306282433047469e-2,-0.2049868807186199,6.609635448346908e-2,7.93809618196822e-2,-0.19005550294689855,-0.12199275159902238,-0.24861440002688756,-9.269522722828838e-2,-3.161670465027621e-2,-0.12409574577647639,-9.315855475292953e-2,8.323477586870186e-2,-1.4666183288728181e-2,2.3039188969597424e-3,-4.4399957416678903e-2,-2.003717344663157e-2,1.0709693844447017e-2,9.954337572586015e-2,6.292240889377088e-2,-0.28541323906082006,-0.2797852036057815,-8.221006974867526e-2,2.5157514831042293e-2,0.20257896386356364,0.2191425546801717,0.25347454253524027,0.26515947879451446,0.2785056400917539,0.15503899274445465,3.616446798857859e-3,0.12619219091673628,4.941348200962286e-2,-5.258518562395163e-2,-0.17691730728579017,-7.171265482153083e-2,-5.806891301770769e-3,-2.393243209041284e-2,-5.462601630891256e-2,-4.407857338010732e-3,0.10422357826333324,5.668502394242545e-3,-1.1518751442116885e-2,3.445079178028664e-2,-3.709922531422432e-2,3.9323007845631495e-2,0.18761214517973568,0.1363739733085112,-6.364282321724281e-2,-0.11262316503271368,4.993083613226705e-2,0.15444453103230643,0.4374565779298641,0.406571103228687,0.5326586152121968,0.44280752784428606,0.24341681243432953,0.36209932931259714,0.20662107092312995,8.09039308974477e-2,4.6563448204794064e-2,6.59262911995131e-3,-3.34068424378211e-2,2.7793237608302176e-3,-6.580876240395661e-2,-3.735239157388563e-3,-4.2969388259389577e-2,-1.7285245749616904e-2,7.62472475418447e-2,-3.844496509859694e-2,-2.115634612302914e-2,7.1474431197668985e-3,1.2201371560690299e-2,4.530658889844138e-2,5.9912540975300355e-2,7.648323563804789e-2,5.454209427442293e-2,1.6925379740611514e-2,-7.055684011974098e-2,3.721913536815467e-2,3.764252813269488e-2,1.5013455311797364e-2,0.19669221162131,0.14453950956984576,-0.10278524451469691,8.909075726711983e-2,0.12424878551228592,-0.1062638239728003,-4.25090584476892e-2,0.1523125072384335,2.1391320785842948e-2,3.936441368405517e-2,-8.810296664600686e-2,-7.181773861712418e-2,-6.356733310776999e-2,-9.50914243952034e-2,6.197955109928294e-3,-1.2014154714896e-2,-1.7734364090210557e-2,-2.7183399082346845e-2,-2.204799000480419e-2,2.2449056774154156e-2,8.539960714996941e-2,0.11747142343056058,0.18779068844671043,0.3027275980838561,0.15619217762858312,-1.0854566356501893e-2,-1.1983871742874744e-2,0.1582984873604201,0.22376499396033733,0.23195828440111593,1.1548451057225228e-2,4.337092504517801e-2,5.1802527928321664e-2,-8.121405844447475e-2,2.090061471410406e-2,0.19664046937928367,6.866404208362681e-2,-5.343606886993099e-2,-3.851764331195406e-2,-3.957599852175178e-2,-0.10821239446892834,-0.14731457713625476,4.4130021857196515e-4,2.435495706124231e-2,-2.083558726709932e-2,1.1059564846991712e-2,-9.624071326070578e-3,-7.217759465030735e-3,5.534627853802836e-2,6.2220407454791744e-2,0.1012051278779791,0.1952120774572577,0.1319995850594929,0.1885256880957577,0.20408134172903983,0.34412174938213835,0.3689041599925218,0.30444454187323056,0.10747123390100881,0.18173160547256842,0.31045976926715757,7.957146857315785e-2,0.1326431488720874,0.2025129825627393,0.1797280861869648,0.11417900330565811,4.92000331072589e-2,3.908340683499199e-2,-6.963627978228898e-2,-4.080587751270853e-2,3.497250421969546e-2,-3.512440899583011e-2,-3.4128870415164686e-2,-4.500280855943076e-2,-3.323474572481057e-2,-1.223324246944719e-2,6.678340686800532e-2,2.5149902478185304e-3,3.830631498763399e-2,0.11381766265992029,0.12999922642352216,0.1559008437930732,0.1540924114420508,0.13102632536528017,0.28813776148499637,0.24009554094394558,0.23454046440340992,0.17902630346705795,0.1846127430743331,3.699418579081173e-2,1.9211144385367696e-2,5.121215642439857e-2,-1.1351002621435513e-2,2.0515746303802283e-2,1.5805466629052682e-2,8.507885026537496e-2,-7.175291843789863e-2,-5.865491074867049e-2,-2.362221973023807e-3,3.141745734025053e-2,4.5648432669826725e-2,3.4132242716731515e-2,3.1351431756342723e-3,2.086494963485078e-2,-9.519938939543776e-3,1.8632236171829412e-2,3.942689489555546e-2,3.236865177913285e-2,9.729100010524095e-3,-1.875248381568076e-2,1.2586958431086006e-2,-2.9915768517186216e-2,-1.363652394228448e-2,4.6048360145747286e-2,3.4131119646954345e-4,-1.6067763180018835e-2,-2.9994576073296236e-2,2.6777583188048352e-2,1.925994178651079e-2,1.0367225340668999e-2,2.446315882855322e-2,-4.177448366009194e-2,2.760605244257241e-2,4.5143403077324236e-2,-9.062675481758799e-3,1.9139378473416143e-3,4.812093261205305e-2,-2.4105482247291487e-2,-1.608489495306115e-2,-3.3459734878004854e-2,-3.5552075880826144e-2,2.4054780114834196e-2,-2.5907422407464145e-2,4.590136767348084e-2,1.5775778896001975e-2,4.509221757534937e-2,-9.526833046802345e-3,-4.001167768129258e-2,-8.311585494489016e-3,4.122670489984344e-2,-8.096725796122835e-3,-1.2586752235023164e-2,-2.4725021158765834e-2,-2.409878214537621e-2,3.116155739391662e-2,8.870120024864197e-4,3.3605448067322865e-3,-3.1808333589955794e-2,-2.1455071951617152e-2,1.7131841572735864e-2,1.0983047972968247e-3,6.2861791149087754e-3,2.38085766303611e-2,-1.6560090985411325e-2,-3.923080152507307e-2,-3.848668900788925e-2,3.3532282560542005e-2],[2.7219945527768696e-2,1.0642463832252072e-2,-1.805639719228807e-2,8.792125928974404e-3,6.58010636025258e-3,-2.7078689038012388e-2,-1.3460507227788462e-2,1.1855999698267747e-3,-3.7076539407983646e-2,2.3475636322423814e-2,2.4732469373259344e-2,4.623478058698092e-2,3.262858934708883e-2,-8.230372877089099e-3,3.5097453064404045e-2,-2.9222851503627606e-2,1.3912946733828972e-2,3.795361698329574e-2,1.864960336851119e-2,7.832959155048632e-3,-4.429109770953804e-2,-3.595795823482658e-2,3.6037491875810447e-3,1.3925394471394296e-2,-2.8540397090730343e-3,-9.939433487125757e-3,-2.6145763046984544e-2,1.2588838122366346e-2,-1.3740473372306364e-2,-2.8648652308549495e-2,-1.9167238448871957e-2,1.6534301895011125e-2,9.4144784975983e-3,-7.302277019916435e-3,-4.195487978004593e-2,-2.843477983820686e-3,4.323465765467076e-2,-1.2946647855124721e-2,2.58105444102638e-3,1.9843158150069644e-2,-3.250673842505472e-3,2.8773522715840598e-2,-1.354166846573422e-2,4.528487071970307e-4,9.658789433623962e-3,-3.1979757897245574e-2,-3.6422403656094116e-2,-4.753337943714576e-2,2.2106005207168263e-2,-2.3596369269849368e-2,2.1050020977544166e-2,-4.7971451330181034e-2,-4.443523506833578e-2,3.9274770171740955e-2,5.6952727580964245e-3,3.273633198996639e-2,5.601715421937945e-3,-6.161610323585346e-3,7.911574783342546e-3,7.576301895194868e-3,6.705225552236373e-2,9.474649516743482e-2,0.18863479865349403,0.1206028532158051,0.10542148543984145,5.285513117822678e-2,-8.422274073741095e-3,1.5729695137802044e-3,2.961029952476962e-2,7.298842572951357e-2,7.030513259205608e-2,1.76989353004757e-2,8.237288112132841e-2,0.22350011066484224,0.13628873296058044,6.0601016921435796e-2,2.4740088125115547e-2,-6.875993782152155e-2,-4.7514735098727744e-2,2.0793806808674802e-2,-1.9068031883480836e-2,-2.365001317303241e-2,-3.5394397982553096e-3,-4.583030249000425e-2,4.367373524213856e-2,1.007112458152538e-2,1.5607434715033739e-2,2.4795883627220898e-2,1.2934580567466178e-3,0.1233484985567863,0.17890339488592727,0.116003696827896,0.11343693323174729,6.925922296770445e-2,7.632233665626899e-2,0.12037644731243327,9.179102585911757e-2,0.10050656858477273,0.10608481798216286,0.15795466861196733,5.013755045348067e-2,0.12287711807641442,0.13834116613861225,0.10868189696575838,7.79411147322358e-2,8.52071937524172e-2,0.1087562010305662,0.21747679041226461,0.16982630300845564,9.302881532819858e-2,3.7300966577795566e-2,2.871824838943161e-2,-1.65269623491307e-2,3.212118802343797e-2,6.998452161385228e-2,-8.376483102287285e-2,-4.526776413516176e-2,2.8014763894251032e-2,1.2436719983514435e-2,5.903346748938716e-3,-9.678189963804018e-4,0.13088395540402575,0.22910648723281263,0.2243356393697124,0.1453254386580057,4.1002415001859645e-2,1.5817793225110052e-2,6.727311293220656e-2,2.7148507440910973e-2,-3.4394681600048084e-2,-0.15986104243885385,-0.19815503920010155,-2.8054027618077525e-2,6.319611585372263e-2,2.1874964851843988e-2,0.17040315449965193,0.19618021153316303,5.590908067476417e-2,3.25163456184897e-2,-5.539660720513353e-3,2.8034913231635303e-2,2.4106677543350116e-3,-6.83275243225223e-2,-6.027568449957994e-2,5.3768906375834605e-2,0.17934309817444186,0.1375444173899572,7.981386674464593e-2,8.975021497241933e-2,-5.529399079794649e-2,-7.366910296017279e-3,-2.533780458502858e-2,-0.11642529594419074,-3.233608704358034e-2,5.2433198452255796e-2,3.0919924690966754e-2,3.8002924501206355e-2,-9.264360845948279e-2,-0.1625947801049862,-0.2752739492579631,-0.19591621656070485,6.666949192990904e-2,-6.771002518696201e-2,-2.170998784330161e-3,0.35400538989555713,0.31913735223152373,1.92701563045511e-2,1.9912077317042174e-2,3.228677149164104e-2,-5.606881694502332e-3,8.409836729364496e-2,-5.5716126324922476e-2,-3.290165941435734e-2,0.12481936849403642,0.23999442092371467,0.3331730320664838,0.20082874756550873,-0.11042918485355346,-0.18022695392215132,-6.0522549630721706e-2,-2.3510981871505538e-2,4.280004656937146e-2,9.208390710550361e-2,-3.666121228508608e-3,-9.444909112678379e-2,-0.24247047366549654,-0.2781268324577535,-0.187053530596433,-0.26357198244471247,-3.084327464939237e-2,5.8070583047399954e-2,6.500126337930343e-2,0.19849328814816788,0.35394200620171956,-6.719564400111896e-3,1.1934767142984965e-2,1.1040287601111995e-2,-2.213158453409243e-2,0.1510026447053788,-0.10268990260073244,-5.295086669186009e-2,0.11413391212948619,0.37989688184324083,0.3318773389127611,-7.973769162783197e-3,-0.1528073978744313,6.29377059432197e-3,0.1605355730189175,0.2543476552699455,0.22313957490684388,2.0832580712613956e-4,-1.7107903628696245e-2,-0.22702579489287175,-0.2695793959932464,-0.1421248657916881,0.269366171860077,0.11142542231201846,0.1295360032593889,0.18137121629628117,0.29266093967838397,0.2321353736775469,0.2609132327736644,3.3909513385666515e-2,2.9801418935095577e-2,2.5375638769753243e-2,2.1705857034730297e-2,1.830232424255543e-2,-7.36856925428199e-2,-5.867274116918013e-2,4.6080862985694554e-2,-9.251727154916671e-2,-7.825785772752941e-2,-0.17012996866110888,-0.1565025086974813,-1.651297403780787e-2,0.26991112578072246,0.35456472728119426,0.3397890984143298,6.928984467126335e-2,-8.551616162641426e-2,-0.21144589615129533,-0.20030291368503098,6.350025659407793e-2,0.23669109785437759,-8.84687212724997e-2,-5.817803176886465e-2,-0.17975366339729448,7.229379610581384e-3,0.2633924431343543,0.2499705900224044,-1.8646883186999093e-2,5.421462821920011e-3,3.313585559601653e-2,-3.6496543948001586e-2,-8.102760261704971e-2,-4.846269396599273e-2,9.858001270833379e-2,4.940665010366105e-3,-0.23447930302102457,-9.505670347972385e-2,5.0003642138344885e-2,1.6302403615589375e-2,4.5570177484924125e-2,5.090156006022901e-2,0.1723724862529519,0.16473053356332953,7.140063536204097e-3,-0.14015998610973907,-0.2470421198479356,-0.1098967293609719,8.307855400294675e-2,1.5235238987103057e-2,-9.037161170121975e-2,5.1453804454203396e-2,-8.230079156971894e-2,3.869569978279514e-2,0.24090840178261747,0.22693379183836893,-1.6225853462944688e-2,1.3626700684562038e-2,2.3180101425141684e-2,-7.29278540162892e-2,7.749747240924279e-2,0.1947527330282034,5.417206154074515e-2,-3.501091849538839e-3,-0.17482809686754244,-0.17320620170314588,-0.11689827754596674,0.1052746421256337,0.2596631199759093,0.11497363401107528,3.369476238422876e-3,-0.11698840696413952,-0.19895243912362418,-0.22208542905633924,2.0827256060248798e-2,-0.1658885449897139,-9.3002291994504e-2,3.584256907540179e-2,-0.13601234208575658,4.253661395500416e-2,-3.7739936403457824e-2,8.460103982151576e-2,-3.490151742419186e-2,6.791377653931138e-4,-6.428033948719679e-2,4.1786287978183255e-2,3.623387764363219e-3,-5.935448096293321e-3,-1.9595199835120848e-2,1.8394413929777996e-2,8.373138216960503e-2,8.099997692395361e-2,9.120699274417518e-2,-0.15568141075142616,-0.11853649105244374,-7.072490016808867e-4,6.878140631681394e-2,4.000009577713664e-2,-0.149659730685876,-0.15098562083951186,2.0077715757414932e-2,4.930642351203219e-2,6.559370050835962e-2,-0.10285909191680416,-2.075551995855176e-2,-5.4568845705042945e-2,-0.20181990107743006,-0.18513327954313127,-2.7454989220334017e-2,1.4755710493598587e-2,-2.4973494147193475e-2,3.3555562725181724e-2,2.45130176992162e-2,3.43608707893012e-2,-1.7862368018789643e-2,-2.6253626442496333e-2,-4.935267734434061e-4,-2.3684718882986927e-2,5.191448856577884e-2,5.234337307560846e-2,0.24788704660178587,6.1629751236590674e-2,3.537437006861315e-2,0.11663144302204206,-7.062228893993221e-3,6.369128105665542e-2,-1.7580435923994526e-3,9.210219855212666e-2,0.20690308263067028,6.09817660446707e-2,3.5620374356187534e-2,2.494136994777082e-2,0.1030117239998478,-0.1903368896256843,-0.32449346793501804,-0.1263744031298959,0.2063814084982956,0.31583114728330053,-3.0095978926003e-3,5.352085610309811e-2,1.9517840350616992e-2,4.590901184197174e-3,-4.498178212417879e-2,-3.961341781017592e-2,-7.401863441082761e-2,2.2911228282567236e-2,0.22830373908645038,0.1591967411729173,0.25550092303966854,5.319135824813571e-2,2.1667759172250042e-2,0.11999902994129133,1.3971434390129253e-2,6.559390944071482e-2,9.192199190041418e-2,-8.260630243177178e-3,0.12579971280432917,-5.911825567287649e-2,-0.13909382798542216,0.1145261529460215,4.78085464247069e-2,7.661178408480935e-3,-2.389336156101513e-2,-0.13935502741506775,-3.659384411070602e-2,0.13407098946766238,0.11740332753823778,-4.4398803308647185e-2,1.9074973393874047e-2,-4.1315136675339294e-2,-2.517958528064934e-2,2.7436493741038653e-2,1.5964269282089893e-2,0.18973734399271094,0.16029759305267563,-0.14845240438536714,-0.17815458994819922,-0.20946729753068855,6.907814579749874e-2,0.16839992361904726,0.1869587601534188,-8.655328398066855e-2,-0.15863266949596025,2.1980437897263245e-2,-3.986160098317288e-2,-6.18332645602036e-2,-8.780536726731367e-2,0.22898366636863002,7.385236694339367e-2,4.4227858246215515e-2,-0.10803301858284936,-0.2457382895950164,-0.3103608483070881,-0.1882005033730667,-0.20359003747987325,-0.10715495206652183,-1.1657288397568133e-2,-1.4076670451056563e-2,2.4074925302262625e-2,-6.089291405339836e-2,2.4612916902202655e-2,0.15888498303859336,6.948167669064555e-2,-0.4311417811888672,-0.3473143380148021,-3.730986021957719e-2,7.786552483203843e-2,0.11551387628072071,0.1498365289579277,1.4668532791084925e-2,-0.2044871488958026,-2.3483077772743666e-2,6.627886125656271e-2,-4.940308655858325e-2,9.78702285560379e-2,0.26707364323077687,0.12672487419911108,0.22868108107168197,3.5056780305704874e-2,-0.13044575724104043,3.8817575970915195e-2,-6.770074696469369e-2,-3.357399443127556e-2,9.687857973018962e-3,3.918915351347347e-2,-2.078910525688139e-2,3.875969588522383e-2,-3.944931699164572e-2,0.10074866960693057,5.587916134737315e-2,0.19014770442694828,-0.27845968089777834,-1.9644251856040875e-2,0.18001194823680627,0.24791207525016615,0.169237145299086,6.626890019108607e-2,-7.682608471035665e-2,6.594944822857937e-2,-0.10743044173096979,-4.591316456073269e-2,4.992830852576224e-3,0.3232712180602677,0.20784875095366748,2.7445371163394197e-2,6.54260264778276e-2,-0.2584975237778456,-0.30553897398464486,6.74928734449938e-2,-8.8875297202682e-2,0.10856945669159522,7.420938745635751e-2,2.858763039625238e-2,1.0302323919988053e-2,2.564442767598258e-3,1.7577867606642417e-2,8.89885255171479e-2,-1.5499215843598292e-2,0.12240165176761525,9.156491946645123e-2,0.3131457539388178,0.16062921932925886,1.5367928983169696e-2,3.987812697410789e-2,-5.146086520140366e-2,4.844990434723831e-2,9.806280872699251e-2,-0.12889887834479724,0.1159940156919024,0.10728518434765232,0.24270411116949064,0.20909191592051019,6.600266035404369e-2,-1.8499926751132465e-2,-0.30177800989677966,-0.17654894942975766,-6.802272128498325e-2,-0.23100075992469082,3.670417755666236e-2,5.039420547012286e-2,-3.894819498538433e-2,2.6808201406534015e-2,-1.390582295774778e-2,2.99078844131742e-2,-1.1826288508641388e-2,0.1723709126966159,7.203745965962587e-2,2.0598618729555672e-2,0.1294823898494658,0.11654968505259965,-4.643505386897901e-2,3.2213866945258345e-2,5.738995747773214e-2,-2.0410636811976957e-2,6.86160837025289e-3,-0.3981085246997793,-8.103940011065953e-2,0.18698455391923452,0.19272020279324412,0.1186174263470464,4.3166524189453506e-2,1.0676885947791636e-2,-0.1821375940422887,9.437106018277462e-2,2.2597452214483237e-3,-0.1441522332388607,-7.841357021502433e-2,0.1264055384525696,-1.5390677931356518e-2,-4.72189690564527e-2,-4.167128147370489e-2,2.8179127230517822e-2,2.362538604973642e-2,2.1638129475209426e-2,-4.525519853533904e-2,-4.086222389745757e-2,0.1533392572282637,2.4590621052711356e-2,-6.00394807000967e-2,0.1942834374578138,3.3243230328148916e-2,-9.359115463294974e-2,-0.10926502921396183,-0.2682299967743086,5.812189750882341e-3,0.20663340133754768,0.21176254940266767,0.2551462939783075,0.19032348477013653,6.19931081312828e-2,-2.2461697644424444e-3,6.910287425209455e-3,0.17852352979178496,5.605432907109681e-2,0.20732050960715417,0.3333915180080047,6.899304451652546e-2,-3.5714137643421615e-2,-6.246870298179036e-3,-2.6221786823480548e-2,-1.4321602678073659e-2,-2.967762538877502e-2,4.953905211164931e-2,-4.4628650244985725e-2,0.1542355079794733,0.209974391021539,0.19635354301984204,0.18828194342196733,-6.355076125410684e-2,-0.11932827406121939,-0.12945356033280747,-0.10190419270812888,5.149374046197186e-2,9.778751352918452e-2,0.19041984622695257,0.32793576034511274,0.33622143766729234,0.35371779024754807,0.2948305572688596,0.2161435777079275,0.1230182181478673,0.2790550185511529,0.4662668978230753,0.3042091936755348,-5.802925468045915e-3,4.311497174259216e-2,-4.6792588609079123e-2,-3.082325603023979e-2,-4.198260061652196e-2,-6.273084995750491e-2,3.55026141541036e-3,-2.519049824845902e-2,-6.691811800119082e-2,-3.137465678743164e-2,0.11342259816705408,-0.17847736248328078,-0.19984910328423622,-0.16766018769281346,-0.1989356696221673,-9.200462246643368e-2,2.259854962914898e-2,-0.11363536533967654,3.6823382476445836e-2,0.120263699699998,1.0216562522752768e-2,9.51298956348191e-2,0.30377794152986587,0.24765804293744462,0.16559526197948024,0.18917633616283241,0.31785402301131993,0.29691369211044777,-1.7138807269257327e-2,-6.668817521750499e-3,1.1139040264386326e-2,-5.1980524564265794e-2,-0.10564113375372107,-0.10895521523657611,-0.11179446402075188,-1.3251823590003778e-2,3.5962780340275426e-2,6.57329354004536e-2,-3.0561355847049082e-2,-0.18370115543210902,-0.20132227051424087,-0.17488322211066776,-0.10485375675482889,-0.13885324631027296,-7.054961407647609e-2,-0.17037703968315146,-0.2027427125318316,-2.93462679770814e-2,2.83931062486793e-3,0.11247300556338552,0.2530177446858821,0.2768543472075048,0.20177682520857862,0.12828424689162285,0.16570060986603016,0.12493181540219568,4.235697228748966e-2,3.614427197590539e-2,-1.659628398965917e-2,8.714622598965384e-5,-1.971105297962338e-3,3.3970855354222076e-2,4.2205222032137994e-2,2.3756760376377726e-2,3.544248977013996e-2,-5.886313439288842e-2,-0.1425396203978638,-0.18953697521376991,-0.22675973592257276,-0.22616426850916335,-0.2170356115950683,-0.18794443972154196,-0.15319558995985727,-0.17118790102612574,-0.10471012350509584,-1.4710624534750543e-2,-0.12514639983099854,-6.452769219323456e-2,-3.1392390322324396e-2,5.2715059821969175e-2,0.22115857078404438,0.23019566981552095,0.2315450359088661,0.13784485938869032,3.624383810975989e-2,2.730962307000867e-2,4.58594533184222e-2,-7.959804654756021e-3,8.31529754721012e-2,6.275050948228084e-2,7.31743828239139e-2,-9.776598930489555e-2,2.2826381332390584e-2,-0.16116808724791007,-0.2522942852728842,-0.20151945901179422,-0.16263304259761216,-0.1872601055719537,-0.11410105954008604,-8.241670956169812e-2,-0.1090041391000264,4.6490293688679796e-2,0.17198050706351978,0.10833112030187195,0.11009833877540988,4.659096208878878e-2,3.239438716599783e-2,5.775256808354875e-3,0.11019232863151565,0.21661181395710136,0.15540488583293216,6.383117021601513e-2,-4.482427462885574e-3,-6.06130709623688e-3,-4.5027843917771884e-2,4.993148088740424e-3,-3.366628409967845e-3,5.378353060239013e-2,-1.9358746186835238e-2,-4.85524274360524e-2,3.018354018674615e-2,-8.222269407748006e-2,-0.11629687580341014,-8.46335420294659e-2,8.514903195669069e-2,0.10066264205047412,1.0865146720624622e-2,4.931727281025696e-3,0.11874311969300873,0.15230419132985204,5.1460057123965466e-2,4.723854731431489e-2,0.10906104815317888,7.551915418374444e-2,4.096927710708907e-2,3.1738112176657146e-2,9.64805045123412e-3,1.2930658708792913e-2,4.9016221387164056e-2,2.321598799880852e-2,-3.482382594702491e-2,-4.302012643157763e-2,1.6287877082833132e-2,4.555401693743609e-2,2.8623574628903893e-2,2.0033085979714108e-2,-2.015980478973612e-2,1.3231217795553295e-2,4.440144044310169e-2,4.069312833822129e-2,-2.8079323977862114e-2,-2.6892265234953937e-2,2.8426030811392146e-2,-1.2383942851020983e-2,-2.2609392731674543e-2,7.394023560072604e-3,-2.1596434381811326e-3,-3.3244595377792806e-2,1.021757006542799e-2,2.0715049131452796e-2,1.4195468331406134e-2,3.394275961841022e-2,-2.5949867888657753e-2,-2.890903335013444e-2,-4.019334533123381e-2,-5.5491349270330836e-2,3.7159374660389835e-2,3.5249641870411805e-3,1.9136783281716675e-2,-4.4532258551437e-2,-2.459591102560414e-2,4.393402290381873e-2,2.3474996329493576e-2,4.0455919872937715e-2,1.2791447185035363e-2,3.61148418923249e-2,1.8820524798797894e-2,-1.5472421871537202e-2,-3.3962431852344974e-2,-2.830113040916671e-2,1.1537849346362764e-2,2.1076694595631978e-2,2.3328651010810306e-2,2.418402405321823e-2,-1.3543904167468595e-3,-4.029940029822821e-2,3.40380907679806e-2,-2.314418607585282e-2,3.5615455027163394e-2,3.688932043183479e-3,-2.6970709313912978e-2,3.4697023613323795e-2,4.5705033630885204e-2,-7.305228130762651e-3,-4.229783567951364e-2,-4.374114045154293e-3,-3.5038128233676025e-2,1.7906427749562807e-2],[1.3880981416358441e-2,-1.4057683642214103e-2,2.094683004176101e-2,-2.8330064349263058e-2,2.0787664891827526e-2,1.7541878910350108e-2,-4.0189282830719986e-2,4.229493466192093e-2,3.119819320273501e-2,-2.0418821245160465e-2,1.684734332147587e-2,-3.0302779296447085e-3,-7.852502088137004e-3,3.8253204782683736e-2,1.003348508195992e-2,1.2786801291518471e-2,-1.133677655779966e-3,-3.337686125281718e-2,7.2891115359655185e-3,-3.778108622683421e-2,1.3656849993019193e-2,6.234272719671014e-4,-2.2787263654568603e-2,6.705449536222621e-3,-4.926593758379038e-3,-3.6354409152405384e-2,8.536221914787025e-4,-3.335928557923471e-2,2.4725110173256966e-2,5.091926127567891e-3,4.63610710657193e-2,4.143533178819539e-2,-2.6998986647101764e-2,-2.312662110307905e-2,4.000373548161162e-2,-3.561314590794075e-2,-2.8960328291213297e-2,3.882575093520829e-2,-3.622570368697727e-3,4.436897809073523e-2,3.2173366038493224e-2,1.7338576213072497e-3,-4.3656781417512426e-2,-3.594390248316362e-2,-5.319511307526824e-2,-2.69442846202922e-2,-6.37975648732964e-3,-1.5710581905203108e-2,-3.277419670941601e-2,2.343649687143896e-2,2.3145602640046514e-2,-1.6834247752442636e-2,-4.377262847961175e-2,-4.6285749883655164e-2,-3.218533336639375e-2,1.8142143006759464e-2,3.86662768122735e-2,3.4882655412499734e-2,2.813423850624348e-3,1.7000997729462796e-2,6.737091203848491e-2,4.4199582445621256e-2,3.03013384034641e-4,2.3372798898733473e-2,6.497252179680438e-2,1.2441250055462254e-2,5.873886630637216e-2,7.121661918837835e-2,-2.0351108509712112e-2,-1.7533854026491914e-2,-6.610344296492111e-3,-7.888865659939097e-2,-9.511624330260343e-2,-7.710386206001768e-2,-9.105589542456997e-2,-5.998083374816958e-2,-8.968240761532235e-2,-7.127819326289946e-2,-8.4158261997774e-2,5.209552187898366e-2,4.0131344086257556e-2,1.4513782345089182e-2,-3.311787593922772e-2,4.574955160529303e-3,3.6348750299275034e-2,-3.725282543346247e-2,1.4682308021743e-2,0.11950360574771814,6.58877468058946e-2,3.673648049284851e-2,-0.10840517656864511,-8.504709786922005e-2,2.5440945235818326e-3,6.266767599957586e-2,9.790964307372614e-2,2.2228064579341685e-2,-1.7170464584493977e-2,-4.525079879049578e-2,1.4532551859235802e-2,-8.678810421543975e-2,-0.11631873316942877,-8.879643681727323e-2,-0.10269097094176326,-0.1434303332731419,-0.11100468452469196,-0.20557325531628334,-9.363833185636139e-2,4.793595375052971e-2,0.1186609703026823,4.981367398272069e-2,-3.7990129473408095e-2,-4.091780564387952e-2,-4.283553863987732e-2,3.82658644082987e-2,-1.1506951672811057e-2,8.054346962035885e-2,4.0974315927640226e-2,-3.0982192686675424e-2,-6.449718149684693e-2,1.881263722279008e-2,-1.6825391954512187e-2,-1.7031905697148875e-3,1.8769714515213858e-2,4.107362219465579e-2,7.279819024731346e-2,-2.048415819996724e-2,5.8394646863838176e-2,-9.92792097317901e-2,-0.19925119758920895,-0.1518714705471411,-0.16014354704259737,-0.20765200348235097,-0.12236131580874769,-9.873690658611073e-2,-6.535358046713433e-2,0.1542742268343202,0.14887038124902616,1.6736646337160196e-2,-5.563820856438624e-2,-1.618463130725189e-2,1.248989232052915e-2,-1.540767931234234e-2,-3.192433989705639e-4,-3.659927291895885e-2,-2.598048016756441e-2,-7.687812797389125e-2,-4.010590992629024e-2,-5.38173865169135e-2,-2.591439443265357e-2,-1.3249203250465651e-2,1.3320214266193472e-2,-5.3507666254832706e-2,-3.185023378575691e-2,0.11047811915393144,8.267543393876733e-2,-2.5687138585812196e-2,-0.1691413901211981,-0.13726937488691332,-0.10648561707076383,-8.201303171352002e-2,3.688263477388202e-2,7.76167966119243e-3,0.14581982525445986,0.22373261825943472,5.3550828123013774e-2,-0.12399707929977825,-3.456038995212894e-2,-1.099936230990296e-2,-3.735769348720079e-2,1.197593435410266e-2,-1.8099574957935308e-2,-3.105367950855574e-3,-3.9574618799928386e-2,-6.552282351205167e-3,-3.989205533854763e-2,-2.1144927699853728e-2,5.032204034953146e-2,1.7429778591048297e-2,7.507903567983294e-2,-4.479737850256085e-2,-2.4245957605999555e-2,1.2696715867444254e-2,-1.5598413281776897e-2,1.1441222388033556e-2,-2.6441596009021438e-2,-2.83347261274369e-3,4.467542029011996e-2,-9.913895232730088e-3,3.6151743572545574e-2,8.980200843414587e-2,0.1936102328882611,0.1345673956109987,-4.640994835126166e-2,-0.17044706837277201,1.514883732989513e-2,3.1822357711820244e-2,-1.0359090103706656e-2,-5.1260692058890146e-2,3.697065814137573e-2,-4.2888950258809524e-2,-5.920612964199972e-2,-8.160362579566646e-2,-3.74417603549382e-2,-4.2248162872689655e-2,-1.1679108117876043e-2,6.132568261303917e-3,-3.4212208728235514e-2,-5.178825430218003e-2,1.3962029177095483e-2,-0.14381462672697093,-9.069456772347608e-3,0.1435818734853165,0.12552726915802329,-3.2651511606361774e-2,2.053314656170131e-2,-2.755413274510573e-2,0.1338120649527065,7.766230362395621e-2,4.946859048984939e-3,0.13666335130538043,6.270787590423697e-2,-8.859824112058162e-2,6.05298447920984e-3,-2.9754674246400985e-2,-4.774390062827065e-2,1.608008215967542e-2,-2.2127525810424178e-2,-5.20097680810324e-2,-0.10130845753046044,-5.818714182250504e-2,-3.317389755801591e-2,-2.217895472478302e-2,-1.6545836222003854e-3,0.1375503299552528,0.1992233582045552,9.581281639269125e-2,4.0199054082660805e-3,-7.194505525292187e-2,-3.145453265185734e-2,0.29007472146709135,0.22399151630679712,4.16111200053072e-3,5.832092671642259e-3,1.8391940524437798e-2,0.20309631892725338,3.553532694821491e-2,8.397664905665507e-3,1.3633190182277861e-2,1.5595802452312358e-2,-6.494837983741476e-2,-5.111600039844333e-3,3.4837866562950305e-3,3.7063575785991114e-2,7.582076756113646e-3,1.4828101385466835e-2,-0.11330468060602614,-0.1868935163581714,5.070167918530286e-2,0.14896987982517562,0.11264671538774466,0.17914168060555208,0.21604197805697997,0.26499766302009164,-1.1343658239418608e-2,-0.2494765816395837,-0.1580407232795805,2.5423744027987836e-2,0.2578896896734449,0.18118302094540648,-4.244447922787911e-3,-1.541817404735743e-2,0.11652574768351089,0.29764802864036455,0.14024905456725348,1.8242869308240089e-3,-9.481083016278136e-2,7.217041553981851e-2,8.106383659341404e-3,3.3051728614319965e-2,-2.868868694296661e-2,-4.146039489672822e-2,1.6867277356234694e-2,3.7095118859718826e-3,-6.26268978384078e-2,4.813316163413642e-2,9.30063936764307e-2,3.242703371482731e-2,1.0623219823514786e-2,4.014751647333968e-2,7.707759685960602e-2,1.9085905072305575e-2,-5.579332068253701e-2,-0.12173783358328408,7.443538643338998e-2,0.2914012698682779,0.2012923902347801,0.19477159934868493,-1.2147409011854364e-2,-9.596955552656031e-2,0.11082583886107968,0.18576325511529937,0.1383065027427704,-9.181975151690547e-3,0.11473129088263427,0.2357649247445391,6.304595290798086e-2,-5.851135803094297e-2,1.416401587861015e-2,6.134029405928616e-3,1.1546624549383122e-3,-9.653640209991571e-4,5.489317891880663e-2,0.1220771114219916,-0.12162476989359183,-0.1440620473770343,-0.1652301604410131,-0.13383431729836617,1.3184525546885713e-2,-2.7379834116467196e-2,-0.13058945365002003,5.852680999945108e-3,0.2768039785936528,0.36504998707948605,0.22779112613475785,-8.955795584497833e-2,-0.15550660048996967,-2.2251859950410974e-2,-0.13077335459943404,0.1013137654385698,0.2855691303886083,0.17448011687475606,0.2592090148140581,0.2511243094862641,1.96742055310233e-2,3.3235877956997055e-2,-2.0617111207836382e-3,-3.128283643251736e-2,-1.8770339354782846e-2,-1.1776778503190808e-2,6.2306806014799904e-2,0.1444982235564109,-3.394635537047156e-2,-4.0288433530529535e-2,-0.12017398958043114,-5.762515776188027e-2,-1.932328346640163e-2,-0.1965187108639225,-3.126065192470068e-2,0.1847362246530105,0.2979979290418557,0.2723745613387758,4.499069193406109e-2,-4.7807899916224e-2,-3.254148478813245e-2,-2.6408791310266928e-2,-0.2150828104362316,-0.10050910393314172,0.22315048558492775,0.19157332147998635,0.1461867510238061,0.1257854994498557,-0.19649697851878045,-7.59071722456763e-2,2.445980158836404e-2,-2.1191126365684e-2,5.10046960255403e-3,-0.1224152005232188,-0.1606256221004632,1.1897483236371747e-2,-4.555610766808511e-2,0.10832709718005058,0.1435132185396899,-1.7233095346581608e-2,-9.967899972687069e-2,-0.2356369447103064,-8.43638491024621e-2,0.17207014872211515,0.36101896209423173,0.1755880012029872,1.3479942887552138e-2,-5.702689994748617e-2,-0.15173030287266492,-0.38113479421406904,-0.16870102331396056,2.496216265244385e-3,0.10155911730948228,0.21268715737983665,-2.966053163317623e-2,-5.6317670749174764e-2,-9.506616275690587e-2,3.372419131615525e-2,-6.523568899977585e-3,-3.182164232490302e-2,-2.983588592259656e-2,-0.2788977181404402,-0.19637255964919081,-5.900489683013325e-2,-0.10524207939830098,-3.7581510381070435e-3,7.535068489842489e-2,4.171849551023438e-2,-2.0602387325727382e-2,0.18356930228545346,0.11025302258708644,0.2436767446119073,0.2892821383066495,0.21442577828706036,0.11322940233671773,-9.770265027074725e-2,-0.41334974081508863,-0.3053807059346347,-0.18665754652208455,0.13528474187210174,0.23500567056671454,0.31248456774383015,0.3657182065359507,0.10520737184103206,-1.767258144131811e-3,-2.8924380015632665e-2,-2.4960282110509276e-2,-4.0973417370892e-3,-8.512235709861178e-3,-0.30315359905799827,-0.13437043226579914,-0.15933068683034157,-0.22124861479292077,-9.783637286603614e-2,-6.78127046683658e-2,3.0121061988488657e-2,3.190685828507018e-2,6.723214493682984e-2,2.895778837786569e-2,0.19786572807396918,0.17475303861687191,-1.6443478255013456e-2,-4.5534021686076336e-2,-1.6510082159374207e-2,-0.2511955603034018,-0.35468991025789304,-0.3715624482809021,-0.14125399337460628,0.10423510365191829,0.2272570056054536,0.27721986571514223,4.9389327476561974e-2,-8.805569367807423e-2,-2.921247392721097e-2,1.3768840217546147e-2,1.208225124529292e-2,-1.6936266534541576e-2,-0.11002738706728993,7.451667495118873e-2,1.2448628407494618e-2,-0.18919222051072415,-0.14787214293116585,3.9621656320441484e-2,-1.6566499036804024e-2,-0.14094877336615655,-3.9946181417446346e-2,-2.792951260971634e-3,1.5030186035695581e-2,-0.19684778632183944,-0.26867311184391707,-0.18539281360479615,-0.20212983544419416,-0.3630846319817362,-0.46641425138806725,-0.47394527046293977,-3.0346204245595657e-2,0.15358197604683593,0.2172444264614086,0.2155382269264032,3.6690522270253923e-3,-7.50511229595145e-2,-3.251336178635323e-2,3.300968822213929e-3,8.447062540684806e-3,3.3296285897378326e-2,-9.770025313738616e-2,0.11009152110514915,0.19170718935961026,7.5030861718749e-2,-2.497207399465104e-2,7.513580180939759e-2,-6.637278174846003e-4,-0.12767739292229752,1.986076784088103e-2,3.002745140419386e-2,5.5477536923972115e-2,-9.063545889258427e-2,-6.673365667804602e-2,-3.040407321843212e-2,-0.19581041454296205,-0.3083804299657907,-0.3337855215738813,-0.3460681434083365,9.042243326468635e-3,0.20151720330801737,1.4774997025397656e-2,4.4588237416696735e-2,-5.4202664176801335e-2,-0.14380637140451916,1.3206359635017621e-2,2.1346039435156432e-2,-3.829371126082504e-2,-2.9054852318191386e-2,-0.19327307282668146,-4.9659022147680504e-2,0.12349540270730319,-6.599751239045053e-2,-0.15469687468706025,-0.11711188288193512,-0.12925437696170752,-0.2060567720921315,8.501269678338802e-2,-1.6913759942716988e-2,-0.17922071139394236,-0.1307711507478017,-0.10601500699860315,-0.19128497278058598,-0.2658043185229618,-0.34197255246531816,-0.377330518814333,-0.38119132915055476,-0.14972540086984382,2.550919044642207e-2,4.810772500737755e-2,-5.496340782496855e-2,-0.10718093985385257,-2.7006957368838427e-2,3.6305243090455075e-2,-3.2037385504565937e-3,-4.1089500553833175e-2,3.4188681620631454e-2,-0.23851256540245744,-5.257230840592118e-2,-2.641193443842876e-2,-0.29906557614683993,-0.33732080767315875,-0.2000838503907487,-0.14930541321258745,-2.5441910508857787e-2,0.1313110650304675,6.258341660695956e-3,-3.199566700513428e-3,-4.573580060417592e-2,-0.2230226835564825,-0.3337264069237796,-0.19806577891374993,-0.25349893005202156,-0.34442129716942754,-0.2903267885909315,-9.06709566099492e-2,2.6159550688709017e-2,3.7187146964324395e-2,3.114865583944814e-2,-5.091649653111566e-2,-5.278223823457806e-2,-3.52807773196671e-2,3.158364588056343e-2,4.3379783050058384e-3,-5.336633503543057e-2,-0.14574597898957023,-6.056286983302773e-2,8.54354916243708e-2,-6.1343909207444716e-2,-6.383042851459451e-2,-0.10004014465245255,-0.19649607932339155,-0.2590127103647397,-0.1247950044516637,-4.9646364337848026e-2,-4.754288067903191e-2,-5.019201463583085e-3,-0.1641900030882667,-0.18095072709880997,-0.23454180807471567,-0.24895079905805018,-0.25500823945362305,-0.16320572221014032,3.581894659426171e-2,6.935943531259797e-2,0.14733253404752022,3.3251079805978884e-2,1.2030246931337543e-2,-1.5319750133731354e-2,9.893521917854744e-3,-3.48369215962774e-2,-9.16763820462346e-3,-5.3092814591854075e-2,-0.13014972792611654,-2.174694443450352e-2,9.391360263552027e-2,9.163342493335865e-2,-3.0659541209344818e-2,-3.220518515244755e-2,-0.13415763749136536,-0.2781940106806238,-0.14416468741975616,-4.211479202156675e-2,4.125414616978831e-2,7.75556826353951e-2,-1.6808659195444848e-2,-0.20233829874079,-0.2870963537610407,-0.3394779620032043,-0.2100679916438097,-0.1453251488882916,-5.222957615166521e-3,4.8183231336143766e-2,4.410538850856475e-2,-7.307114467250501e-3,-3.884877082791212e-2,9.45121769381821e-3,3.1569032198661457e-3,-2.5545488178120846e-2,-9.286399149312112e-3,1.354120253483121e-2,-0.10694481359744822,-9.805566277733287e-2,-6.07785140147844e-2,-4.577798801729238e-2,-2.677922383219933e-2,3.1388554785108796e-2,-5.867949591296086e-2,-0.19467107551850177,-3.881459039785566e-2,-9.230851750061725e-2,-0.10415278688228921,5.747489669373612e-2,3.4276554598950944e-4,-0.15954494768202293,-0.24774412979187252,-0.2725141249454018,-7.885651023396285e-2,-4.2187229213758906e-2,9.117628085148145e-3,-0.13902099598665058,-8.312789736625752e-2,-4.719047358779054e-2,-1.9760598592488403e-2,-4.029038964002448e-2,-2.8303085882109558e-2,4.391742032740734e-2,3.796916817688609e-2,2.270040949375176e-2,-2.1883641770020456e-2,-0.1250221913916655,-0.146122194755834,-8.195239164467304e-2,-4.450936853454747e-2,7.623491395723583e-2,5.905436270273877e-2,2.2189920073884914e-2,-2.3580715132392713e-2,-1.1504788656240276e-2,-0.10923621411769673,-9.839919511550979e-2,-5.3711912301060476e-2,-0.1606012465422665,-0.1257216700731323,-0.10981990418006882,-9.965819469520186e-3,-1.1129292090066046e-2,-0.11152908296827117,-0.16250898105285938,-0.1032720225530549,-6.928690071951647e-2,-1.709950263377683e-2,-7.0293600769995735e-3,-1.2554545703171622e-2,1.4584428223697314e-2,2.5140442106760037e-2,2.3246176334621622e-2,-2.9521144257957075e-2,1.7630091894609554e-2,-8.676239809089528e-2,-0.14152271210924905,-9.491745404693083e-2,2.3082110592821108e-2,-2.6105110821074695e-3,8.501601569623128e-2,0.10059594817308007,5.1606430563538364e-2,6.393593785095893e-3,-1.1286582183427853e-2,-5.0448352396353986e-2,-5.305329429892671e-2,-5.019259789367051e-2,-3.0955588745316658e-2,2.9930987053870477e-2,3.0450889762008555e-2,-3.3630142342891904e-2,-5.0808657788758115e-2,1.0700308437696737e-3,9.252632150028485e-3,-3.499734388653253e-2,-4.5067598093689765e-2,-3.0038115900067937e-2,4.5302600294027245e-3,1.0514163770211547e-2,-3.74810073383428e-2,-4.0453438316264134e-2,-2.1129514656210525e-2,1.472162178599946e-3,-3.516462947704169e-2,-5.6822827380605644e-2,2.570167272762306e-2,-4.780024819505124e-3,4.236670663683552e-2,3.216997632256778e-2,1.9345852436975973e-2,7.893718500765312e-3,-9.01053922313822e-3,1.2264004282975052e-2,-3.814052433696536e-3,-7.858353303864732e-2,1.886536983265161e-2,-4.2890263517851496e-2,4.742290480261597e-2,5.400036136054451e-2,4.5248025805248775e-2,3.559850250251571e-2,2.8379493671323187e-2,1.9121737624750963e-2,-2.9793313071510816e-2,-8.541617294924427e-3,9.645178532381475e-3,-3.3161981274324404e-2,4.2532736958691246e-2,4.846228209190682e-2,-1.7469174421306386e-2,2.80532464152982e-2,-4.571472560978186e-3,4.4707422801039835e-2,4.89620456020596e-2,4.337964640892853e-2,-3.8634719963063606e-2,-4.332731000239116e-2,1.3807851146838477e-2,-4.077253714961221e-2,-1.5715490689583656e-2,3.61784014364867e-2,-5.901045980276912e-2,1.836327683192901e-2,-1.9710667463961717e-2,-2.9403321311932542e-2,2.9456470406331488e-3,-4.4904444249728157e-2,4.993343039818944e-3,4.53568153885188e-2,-3.105606850376551e-2,-3.6388657817608666e-2,1.855999494766735e-2,4.5747783265480436e-2,-2.4554767620648274e-2,1.6438889098517994e-2,1.590085188834998e-2,3.076227576318397e-2,-3.598382302853879e-2,-1.8934239960763773e-2,-9.867508033763024e-3,3.0858221085710194e-2,-2.228593098758352e-3,2.7186317414370216e-3,3.715365661736745e-2,2.639719108458666e-2,1.081074134461546e-2,7.023555533528153e-3,1.5322060564430346e-2,-4.367289586296347e-2,-2.3803281903632748e-2,3.129704176712589e-2,5.90830091171685e-3,-1.2789445601960365e-2,-8.995823271210913e-3,-5.541702122417555e-3,-1.1336461888738648e-2,-3.0521107288979305e-3,-7.593748476290795e-3,-8.60706445300285e-3,1.9155708407222027e-2,-8.75536678209579e-3,-8.373535480679305e-3],[-3.3543349447430577e-3,-8.223729194843474e-3,3.331038722832226e-2,-2.0097142412907294e-2,-3.036242903653676e-2,-7.679594644678945e-3,-3.991530154781906e-5,1.8659529247503127e-2,-4.445863519354006e-3,4.3066922322140225e-2,-7.589319165803285e-3,4.266583977255291e-2,-4.44376878725884e-2,-3.6714944445532326e-2,2.908969548099515e-2,-1.796276855802961e-2,4.635725689447464e-2,2.1266022792172892e-2,3.6065848813595335e-2,1.283367097557396e-2,-4.315741333732905e-2,1.0073348004084e-2,-2.0020235157350203e-2,4.407680779367942e-2,-1.1016533532222782e-2,4.555010092156516e-2,3.51820082740027e-2,2.692377992342027e-2,-3.7653351391547775e-2,-3.0494309726686018e-2,-2.5658177406256172e-2,1.5280883363595961e-2,3.5155511915266925e-2,1.247052550705395e-3,1.3767416868897125e-2,-3.70867712436994e-2,2.719159485470992e-2,-1.6987504477789017e-2,-2.835555415810688e-2,-2.9839845603642775e-2,-3.7761285750425094e-3,-1.165156214258619e-2,-1.8458084542610786e-2,7.060075973593778e-3,-3.5619464004026484e-2,2.3873955028347625e-2,-1.3139206990573082e-2,-2.7999007275071985e-2,1.720231781878306e-2,1.1156733272089419e-2,-2.8786895059197674e-2,-4.141932504604128e-2,5.224946638171406e-3,1.4291135948113263e-2,1.677088036205874e-2,-2.0115402202760174e-2,1.2905327902615327e-3,-4.413744837544657e-2,4.019060255830773e-2,-6.623589752201434e-2,5.90142725327845e-3,-3.1316641369512836e-2,-1.401683665372169e-2,-3.431161568181632e-2,-4.785962089184336e-2,-6.242179315841345e-2,-1.365267720771563e-2,-4.82666116612301e-2,6.390818296378298e-3,-8.58433596246683e-2,-7.202958498416324e-2,-2.7048273665541564e-2,-9.032714279691095e-2,-5.366340599854425e-2,-1.049427288205303e-2,-7.746589536377402e-2,-3.9398462266763086e-2,-7.49278510279507e-2,-3.2509922725306374e-2,-9.243217337632684e-2,-2.5152654463593754e-2,-2.315096247078412e-2,8.987136158356938e-3,2.506947365730663e-2,3.237517760781365e-2,4.357984758331219e-3,1.6341599297240866e-2,-6.767559650326947e-2,-1.982840994316918e-2,-4.424926820954886e-2,-7.516444175465807e-2,-7.544798686941577e-3,5.65652993342843e-2,6.015134440846811e-2,-3.400854592894199e-2,1.9847816452041547e-2,-9.202266785980183e-2,-0.19388252023355831,-0.2509017548031843,-0.31369023059050793,-0.3391130020895951,-0.2305296026138986,-0.14979861450472978,-6.529885411888257e-2,5.004328392920079e-2,-4.9971145286088585e-3,-4.237145046333388e-2,-6.165675273055887e-2,-7.297346929014442e-2,-3.388056057021389e-2,2.7109539344701353e-2,-3.019896899192256e-2,2.3039087768326614e-2,-4.494787906618484e-2,-3.178095393099148e-2,-2.7937827221149673e-2,-1.0520467462109677e-2,8.76145172179243e-2,9.550114661069163e-2,0.20992459807980043,0.2316771274743459,0.1870596717582179,5.373820159554921e-2,4.5994204451201844e-2,4.822527147001247e-2,-5.3508580960885566e-2,-0.1502652572762996,-0.1623413951322453,-0.15928634543132478,-0.21803893536365304,-0.16388856417702424,-2.6592494190989364e-2,9.443780131572985e-2,0.16315979410052533,0.11782338235551898,0.10097849516571862,-7.47286406852181e-2,-8.54839059493934e-2,-2.4286154831584767e-2,3.609649810349607e-2,-1.318108267324039e-2,-2.0006252484286096e-2,-5.231535444979954e-2,-2.2767014963051026e-2,-6.93563736710465e-2,5.994821010026226e-2,0.13785595865172776,0.2068717923129505,0.226842200361508,0.22645983664790748,0.27651765337977957,0.10059757756782016,1.149937483511748e-2,5.340371771791008e-3,-1.8554567364936835e-2,2.0235900125329637e-2,-2.0560410584393472e-2,-5.49804514539834e-2,-3.4823515348028224e-2,-3.204093926070676e-2,1.557499598663153e-2,2.7800074752538574e-2,-1.187209875260675e-2,4.125204323586764e-2,7.972650386058212e-2,9.15171053906778e-2,5.077109056807434e-2,3.3921475242619644e-3,-6.339123060974636e-4,-3.653058752311568e-2,-6.797100495592903e-2,-6.341082318267813e-2,-8.832119760005866e-2,-2.5551630614251614e-2,4.042552566719159e-2,-0.10832577822418132,-5.253946291824328e-2,0.1129751790209707,0.1411555129681324,5.130467405533847e-2,0.11457895005093564,0.10842554558273104,2.2376072055310506e-2,-0.11035913614036055,-9.79837070761527e-2,-7.879235957720401e-2,-1.2251508904969394e-2,6.93598089137213e-2,-4.636708052584411e-3,-7.769465000040639e-2,-2.870161780993384e-2,-8.724216556268096e-3,-6.64922676662184e-3,0.20220868531075303,-1.2411732565906473e-2,-3.03778355216109e-2,-1.4260497478061409e-2,-1.0359510729780414e-2,-3.912562632968203e-2,2.8543363573638996e-2,5.6797428213178076e-2,-2.5762534750206494e-2,2.28021368682249e-3,2.339448880930626e-2,6.295147769456247e-2,8.923234662427643e-2,0.1516652705442111,9.74039776974831e-2,0.24415076091217983,0.2843428075419897,0.1912526142651056,5.19309284129409e-2,0.13976496849403172,0.22542975361220105,2.2113267231236806e-2,0.14260657395434898,0.21929190496679735,0.2746501289512545,0.18951486318347907,5.7436045756863445e-2,-7.400981112177951e-2,-5.926694162473731e-3,-2.0378482912074076e-2,4.089456618887788e-2,-1.5742020039103938e-2,-2.2682719012122383e-2,4.3496283053951666e-2,4.416742326501854e-2,-8.59427321503374e-2,-0.10452375071429694,6.904465585242466e-2,0.16420782707874476,0.12772621839974327,3.231719302253277e-2,7.084642753515182e-2,-2.0782821411766676e-2,0.11500840881840345,0.12164825357015743,-5.54344813512508e-2,8.27057493266502e-2,0.11913716935976715,3.78671305137089e-2,-1.6798150909449194e-2,0.209993071321577,0.13945696312221234,0.1606001350554052,5.233885391423666e-2,-9.484149935289857e-2,-0.16531628678374943,-0.18307706419597455,-6.132216573358321e-3,-4.047924951998622e-2,-4.275066758053748e-2,3.404646281763837e-2,1.9013575271486884e-3,8.63550949187778e-2,-8.861676884855499e-2,-0.13485231308605522,0.12966712587774235,7.537652576728049e-2,0.20031904022005348,0.23388022398860617,6.1947639785927835e-2,5.171800304580825e-2,0.13485400126785735,0.1414985875827608,8.670208992123811e-2,9.428480979651636e-2,0.2849694861223817,0.22050464375328638,0.16848091345279848,0.32234061639195943,0.18575835653985648,0.18717229084900788,3.84069850498577e-3,-0.16350135052842632,-0.21583116206853706,-6.408733771369493e-2,-2.835265533515557e-2,7.960285727399503e-3,-2.132755698284623e-2,1.359064884286454e-2,1.6364996683972784e-2,0.20468840269936325,4.6238012594159675e-2,-9.84174755523625e-3,3.0126783882202888e-2,7.272355858671924e-2,1.9416234939159657e-2,-6.706570841427249e-2,-0.200066962942046,-3.438484277295667e-2,0.15793380745088442,6.881440640704438e-2,-3.096009117173962e-2,0.18748496147187227,0.326441987977283,0.1248934781455224,-2.716081619858481e-4,7.287594744923229e-2,7.822036435718464e-2,-6.487434343442308e-2,-0.2603629086372379,-5.9000532509251316e-2,-1.5502349980236007e-2,0.10866811622012447,-4.422049642631827e-3,-1.6198631834388414e-2,4.380821734096236e-2,1.2438987171178167e-2,0.21363092011747206,0.3843914476227587,0.19883872730800292,-3.829803252660592e-2,0.13223109130268018,-0.13930311950346194,-0.23205433001996298,-0.25366982799637083,-0.33159623497722207,-0.2356714936067967,-7.306833725592604e-2,2.8800906577646293e-2,0.13677477783367137,0.219766006110477,0.2497331936675527,0.18312304516974426,1.6391260435111504e-2,2.3575385647865814e-3,-4.7830906384385856e-2,7.754539604718759e-2,-1.5422516307887239e-2,0.17109323484975023,6.435652205398891e-2,5.2383526741772615e-2,-5.639936368766884e-2,1.8461668830992407e-2,4.517039515186836e-2,1.792270730228765e-2,0.28267988718670795,0.34559938553556124,5.577216069092608e-3,-7.694980734520698e-2,0.12820346955751236,-8.678864609444126e-2,-5.4714903746076446e-2,-0.1311848529187816,-0.2165063647425027,-0.3405118962182192,-9.663112639951295e-2,6.141028677582924e-2,6.82540938274755e-2,6.879172970744295e-2,4.077009538185405e-2,0.10787565880061725,0.1865479710423903,7.082360130857432e-2,-0.20304332419715904,-8.142274110039834e-2,-0.11952611632715615,0.19661522925625408,0.14296184087751954,4.85730218741557e-2,-5.787837763147782e-2,3.472999613346862e-2,2.1181036544765476e-2,5.687262834079375e-2,0.25638385705136557,0.17071463798110312,-5.025822126176485e-2,1.946988736935111e-2,3.692932486986947e-2,1.0276947109682244e-2,1.2495356885173808e-2,-0.17665324470471355,-0.19364472858926748,-0.20393781465388944,1.5104904571896142e-2,5.1202851564907934e-2,-0.11694328525493425,-6.600859556206732e-3,4.065590237461867e-2,0.2278652126465531,0.3769222072704,0.17961004218700663,7.246933046671593e-2,3.97244622925458e-2,-3.023658740136887e-2,8.15439309207807e-2,0.14654095119124094,0.24486684853862173,6.552939308649877e-2,2.3637616646027284e-2,-1.7237612071431863e-2,5.388056107825424e-2,0.24212557094373752,2.3901534494013367e-2,-9.733647061894217e-3,6.259684631043285e-3,-1.048998732161516e-2,-7.855437539187685e-2,-0.16232224061267675,-0.199022128529414,-0.1802625787333648,-0.35371972825214804,-0.18651019574911845,-9.146011292151304e-2,-0.18932683588691077,9.63420047964061e-3,-0.12949266013262073,0.20034756464775905,0.22632648185256113,0.16964304912880698,0.14201585793162863,0.23726254704823682,-8.27972445471539e-2,-5.855145710849563e-2,9.711863832041566e-2,0.17216586538107617,2.387243164529014e-2,-3.114641487268949e-3,-6.718300289214244e-3,5.533244666841639e-2,5.6341370481463704e-2,3.2685194082828013e-3,6.782170963011737e-2,4.145488580919963e-2,-6.608250555866302e-2,-8.983721313562827e-3,-0.13571077610393817,-0.22180643771800324,-0.20651865246911308,-0.2998452423263252,-0.16526219650162957,-0.29859344706949154,-0.1486633731908625,-0.10742917205783654,-0.11819298243616137,6.134720660060417e-2,4.493594999245939e-2,0.178181488872897,0.2702744844468512,0.34934626580443,0.11430480697741742,-7.912154704035104e-2,-2.7113833931435402e-3,4.283020674959363e-2,5.1763138092296185e-2,1.5682342767272827e-2,3.156279402885287e-4,-2.659634305695578e-3,-1.3881878921616447e-2,-6.718312460652395e-2,6.925964391035162e-2,-0.1425142325039859,-0.19624355004603608,6.053838777299185e-2,-2.5759454154355856e-2,-9.201196506804976e-2,-7.685199267567086e-2,-2.367606428165849e-2,-0.13565172626702549,-6.607655148053607e-2,-0.1662302535026115,-0.14421197637178765,-8.830343403333524e-2,-0.1284929779259956,-0.2592438499223575,-7.527067302396358e-2,7.183862672397948e-2,0.2515137964738141,9.326988765409253e-2,3.9744122813744634e-2,1.4617309610055808e-2,0.12585902076672517,-1.1092885585657618e-2,-1.7685518794650402e-2,-4.231549247360247e-3,2.7990335232633265e-2,4.5469797811565335e-2,2.4027781617212463e-2,4.8826522578081046e-2,-0.2006520083362881,-0.17962569290741898,3.8066796794013265e-2,3.731798838171766e-2,-3.116935029054132e-2,0.21587960093771394,0.22850935557938373,-0.1600582622389626,-0.19455347256996489,-0.19199642494982858,-0.2208336472527584,-0.211650357157527,-0.2667573368264956,-0.2860305102883818,-0.1509977122008682,-1.815743292670367e-2,5.067954612031e-2,1.779401251580524e-2,-4.9702444789694614e-2,4.689176327919835e-2,9.223728518509595e-2,-4.323212688097472e-2,1.0597754524335201e-2,3.8560565540269784e-3,-1.72148436650424e-2,8.821092222742494e-2,8.362824573802179e-3,-4.101301306978126e-2,1.5818467419127152e-2,5.154742210635842e-2,8.356506463062378e-2,4.544181385043904e-2,-7.948605339933777e-2,2.4620196206556647e-2,0.22078671781068418,-2.365846106502561e-3,-0.2037195997843092,-0.2256701677677881,-0.20467357728523547,-0.14312401929422658,-0.13937378519941068,-0.13160045585133218,-0.19613149028434568,-0.11564798181055595,2.719775478759384e-2,-9.533777803193609e-2,-0.12744920691897652,-9.34450861105386e-2,8.069450760187445e-2,2.4705129481582256e-2,-1.732614932875493e-2,5.248438407925345e-3,-1.866356691773713e-2,0.14569217801494794,-6.645421036460694e-2,-0.2907339241651533,3.946593123444524e-3,0.10261302892955622,-7.333073726653197e-2,-0.26671030974145965,-0.21573755378623272,0.11343556196163336,7.234623410252851e-2,2.383613878069772e-2,-0.10526767323580503,-0.14683977990237648,-0.133262015774056,0.10443618000474582,-2.058280403542833e-2,-0.25595311043065105,-0.3159609176080476,-0.1503330771010743,-3.187663787316614e-2,-1.878739501162211e-2,-0.1152352309904005,-8.930785634836397e-3,0.15999213689900435,-2.782539313198929e-2,-3.22157622490925e-2,4.6151300825880565e-2,2.760630555016916e-2,0.16524003937430712,5.765067841376898e-2,-5.374153433393573e-2,0.1143856557346615,0.14437445840293858,-0.1991145097117468,-0.21575622397291974,-0.11174498605233747,7.558253103362232e-2,0.13773144226333764,9.593865502877177e-2,4.171807614411151e-3,-8.312897481666588e-3,8.499473025982304e-2,4.503557521114826e-3,-0.18453612711939182,-0.29607067631552186,-0.36298019809456816,-0.23644291290278907,-8.214698370783678e-2,-1.4961498214912288e-3,-8.066567602607347e-2,2.8387393331003437e-2,7.196792725080672e-2,1.2868117812975852e-2,2.679509593459609e-2,-1.4990554680640854e-2,4.672840008870912e-2,-3.8860967971408096e-2,4.588292973671154e-2,-4.740232201773268e-2,-2.566112335294185e-2,-7.379681299754205e-2,-0.2351885096467589,-6.766437348814598e-2,9.780918468434228e-2,8.807810199211796e-2,0.1702324208688254,0.20444223229961295,5.0322002308040306e-2,4.781734088999033e-2,-9.369662611790591e-2,-0.21205530378859327,-0.3257267978874335,-0.42000313053078053,-0.3579733823559697,-0.20561960739168286,-0.12776630764142954,-8.874604863229013e-2,-0.10886064582150347,-2.447765775063593e-2,3.654148267366778e-2,4.12963496541251e-2,4.077029131764096e-2,-3.1460228662422124e-2,1.1260966498965507e-2,0.1861767628900577,0.18175227060860955,0.12017262793214117,1.6155961284775873e-2,-0.12547077034266158,-0.18791015956350626,2.815674154650249e-2,0.14312952372725568,1.8349389052940927e-2,-1.4389532244772919e-2,1.1232971841486316e-2,3.319431072191922e-2,4.5433062519484244e-2,-7.600400054343025e-2,-0.2835704654649186,-0.34053194912703005,-0.2834146181319426,-0.2920745753478792,-0.20600162718489456,-9.714945523522324e-2,-0.10378034409233929,-0.12113425173684268,-1.181587766933498e-4,3.304520528678312e-2,-5.789440607556229e-3,-2.4349193952376714e-2,-3.412641494977258e-2,-3.957778924748398e-2,8.722623863360413e-2,2.4335891833232197e-2,-1.439130990868034e-2,-6.98689222810476e-2,-0.15436132737439986,-0.15142183950683674,8.549323853437556e-2,0.22439861450729456,6.321700895078361e-2,0.1379874712624651,5.21055982952931e-2,-8.675935940531766e-3,-3.3964632700218836e-2,-0.14832059328888378,-0.20344818117518215,-0.18064744621171688,-0.10516966886196463,-0.11107098371681633,-0.14336084561993956,-5.197986090027145e-2,-8.748580754164262e-2,-4.246359753195522e-2,2.4365122048844792e-2,6.8076916082150905e-3,2.5078628204598177e-2,-3.328993243096117e-2,1.4467539549018393e-2,-3.4576342997248044e-2,8.520359186958423e-2,-6.207189381715903e-2,-5.851564440781859e-2,-7.053017457988334e-2,-9.61214237161864e-2,-6.381365676728983e-2,2.2381207058308643e-2,5.8007876158419736e-2,-3.9020536539496706e-2,4.305446986123613e-2,2.4430097910507587e-2,-0.12327569986991095,-0.15917466274060185,-0.15459334930418098,-0.19437863344787398,-0.11817679549106724,-0.15657182589126947,-7.41376456472974e-2,-0.11917942160420429,-6.120341237382476e-2,-0.1358912982586625,-5.014815093166364e-2,1.674862627825779e-2,-3.079139143167569e-3,3.9302401740982804e-2,1.3900602417030901e-2,-2.5144195282188243e-2,-3.396568083463834e-2,5.3668167096960154e-3,4.310700900865293e-3,-9.302226885667458e-2,-8.60100981072423e-2,-0.12512100663936407,-5.340936713926956e-4,2.8633148786994835e-2,-2.8146921545941554e-2,2.474107665872937e-3,2.8380366066537766e-2,2.4889702412997615e-2,-4.171820486053465e-2,-6.955974353740287e-2,-4.884068831056164e-2,-0.10174023924319175,-9.134828069130621e-2,-2.891405507647199e-2,-2.095827225175964e-2,-2.319042734367452e-2,-2.810999770648509e-2,-6.535273207127124e-2,-3.976349150562607e-2,-3.2596587656456504e-2,-1.3331093302262526e-2,3.0696068114982066e-2,-3.029917078592191e-2,-2.0390115445585e-2,5.327901662912259e-3,-1.786841538703315e-2,-4.536613032077568e-2,-2.7631651425254197e-2,1.2699841822642569e-2,-2.5256864801316316e-2,2.2165570184323382e-2,-5.9908932235448666e-2,-4.102188528724446e-2,3.925644319752921e-2,1.8964727050059586e-2,-3.690407404949981e-2,-4.057290881548765e-2,-2.058088262024082e-2,2.953233964997567e-2,-4.186575353751824e-3,4.022554375920673e-2,-9.690965519775005e-3,2.5238464079374284e-2,-8.44824687550869e-3,-1.3677476716691613e-2,4.30947203940395e-2,7.922181476964307e-3,6.401437218610544e-3,-2.276967989335628e-3,2.3911550871711977e-2,-1.3708661442373959e-2,-1.055644438871778e-3,-1.2322079006870478e-2,3.852002360461682e-3,1.3878850432991825e-2,-7.033867258283467e-3,-1.781432335217383e-2,1.952177860483463e-2,-3.622354145188544e-2,-4.2968378221327295e-3,-2.7392258349192403e-2,3.011205879289248e-2,9.143737617494875e-3,1.5019928415998635e-3,2.1491142838973683e-2,-4.636579591809982e-2,2.583757704089226e-2,1.3731900940988775e-2,1.766450311012185e-2,-3.416817186126777e-3,2.2096074417421792e-2,1.0063074615309925e-2,4.180605076528917e-2,4.619718982407245e-2,2.3435387192437553e-4,-9.74670123862627e-4,4.511282628360668e-3,3.0583580022690772e-2,4.3523418376857505e-2],[-1.0689312538370159e-2,-1.7773187056165568e-2,1.4515407887565782e-2,-3.0284862698671974e-2,2.1088174324839542e-2,7.147377045806062e-3,-3.0564871017130554e-2,-5.453522300236382e-6,-1.2864401734886476e-2,-1.303327942972566e-2,4.59585406213356e-2,5.309520012178861e-3,-4.499185362756362e-2,1.0566705478576374e-2,-2.3942719738350764e-2,-3.855656431899597e-3,-3.122009347157068e-2,2.553786354833256e-2,2.6375547610128152e-2,-1.842784637728403e-2,4.15781626338545e-2,-7.656786000624593e-3,-2.705002379869011e-2,-1.5042903095412001e-2,-2.6943369086474638e-2,-3.3588645786181e-2,2.119245560804596e-2,3.572930866096139e-2,-1.5996768557019925e-2,-7.5291542473639415e-3,4.503493025375036e-2,-1.4794797533719916e-2,2.431116998795426e-2,1.7278439847416976e-2,3.8179330698259864e-2,-1.881987060792708e-2,3.60425384701274e-2,-1.159110305400747e-2,4.762522618215513e-2,7.461019490743256e-3,-1.9042813700752757e-2,4.197232208997547e-2,5.187793806009898e-2,5.892992314769836e-2,3.8839098524506996e-2,1.7705774540383207e-2,5.946590938610098e-2,-2.6052991279539875e-2,-5.0136884247692144e-2,-2.5216894754105042e-2,6.952810818837889e-3,2.8595151203830407e-2,-2.318304085693322e-3,-3.976028079848019e-2,4.427774369292185e-2,-2.4577244281210952e-2,-7.63425085479361e-5,2.1635263170049126e-2,-2.6122966980769408e-2,-3.484863750320527e-2,1.3889952308264425e-2,-5.032439326697598e-3,-9.723383097352871e-3,-8.977421590420042e-3,-1.2909607477976317e-2,7.564309144672529e-2,1.680476670553119e-2,-8.233258470278572e-5,2.9952680575600726e-2,0.10827707177403045,4.209843439041793e-2,-2.1806237147608792e-2,-1.4641121495673796e-3,8.20585743390717e-2,0.11250314302264557,0.1643027947860842,-2.2474320987350267e-2,-6.0762082220919285e-2,-1.3425481167727151e-2,4.886642976081432e-2,-3.794556610147986e-3,2.1035901967551573e-2,1.24984800584544e-2,1.242630786703998e-2,-3.75448435555066e-2,-4.04495818593505e-2,3.0896448493080097e-3,-6.23769702291874e-3,1.0805850564795138e-2,-4.9933897715994664e-2,-3.76440546358731e-2,5.327484423775718e-3,-2.809462267101174e-2,-5.8820926730368414e-2,-7.155757594545875e-2,3.543329010911945e-2,-8.796853370122492e-3,9.224332794487394e-2,4.950153054073969e-2,4.828878088389899e-2,-7.454785818774693e-4,5.5358284682520915e-2,0.12683219099767867,0.1737335601795965,1.1410698077747809e-2,-0.22899442844404347,-0.14477462716029194,-8.122089595861627e-2,1.0748971107143282e-2,-7.406103586442855e-3,4.0472083092731134e-2,1.3791085023203963e-2,-9.108732895589014e-3,-1.3408281181121846e-2,7.96741084644389e-2,3.781993161974979e-2,8.159647718179026e-2,7.909476873699067e-2,6.010777979203725e-2,-3.9537368291791226e-2,-2.53143151115018e-2,-8.762385367385478e-2,-1.9430988811657786e-2,-3.0087435090170603e-2,-5.42296940472225e-2,2.7617002149942456e-2,1.2515590824783767e-2,2.4627547286779246e-2,9.744590691165574e-2,2.069516458101777e-2,0.10956998464436721,-3.8584481522709775e-2,-0.15687192697219327,-0.21083117619818315,-0.23407388137382681,-0.17301935742140773,-6.671720549632637e-2,2.4537233253318098e-2,1.0767463833762285e-3,-4.758656210718437e-3,2.9484174318170846e-2,1.1999256901916675e-2,3.169283046131004e-2,3.891160891946366e-2,6.493053153942735e-2,-2.4929034646303135e-2,-3.659203536606517e-2,-0.11382244618306514,8.294566007954449e-2,0.16181002290990035,0.11495724695112451,-9.987106609246827e-4,-8.2749669699888e-2,-0.1065042685798632,-4.836576371453859e-2,0.12080730720140803,0.23730512623271807,0.17864883637825604,0.1614352732524743,2.3745680678054992e-2,9.762183164269758e-3,-9.759048613216738e-2,-0.2355128463712657,-0.21962549491640374,-8.924925355150219e-2,-2.9854497045545103e-2,-3.4941269806223044e-2,2.5606596604477276e-2,6.0070283523262335e-3,-2.595730352775904e-2,1.5060966323550157e-2,7.445271940282544e-2,6.420250480519664e-2,-1.2205798064871955e-3,-3.0718279449397125e-2,1.813779372783027e-2,-8.715197271000981e-3,0.12127196681696366,0.11313255781420596,-1.7161556240016602e-2,-0.16803885368638347,-9.643350795735195e-3,5.74711028273908e-2,0.16754410734263825,0.2845002256836358,0.2512869389696643,7.75691174995629e-2,-1.1261063389751948e-2,0.10323643715520853,-2.085769559073886e-2,-0.24940002977539028,-0.15303193055556202,-4.718694265774716e-2,8.566780643866001e-4,-2.9490450131075638e-2,-4.161220502880677e-2,-2.3144649691664416e-2,-2.82090266400453e-2,7.795499112319022e-2,0.23443825604385465,0.17519414631877403,3.006415926332321e-2,1.4413291965486586e-2,-0.1292123442360101,-8.586244847504151e-2,-7.508821104158453e-2,6.5465015286663e-2,6.455119141290522e-2,-2.1127109386342328e-2,1.9411592762758088e-2,-2.7955679682226856e-2,5.907548631222539e-2,0.18919284859695593,2.505040628845615e-2,-0.14942812809495595,7.6888854656118e-2,0.15841273840097964,-5.6775170061167585e-2,-0.1727863733502845,-7.445156317751334e-2,2.4438736375305626e-2,8.446473946508797e-2,2.2859874069423258e-2,-4.661513571324728e-2,3.5272209596001934e-2,-2.1378476820684552e-2,-1.2211188529976645e-2,5.9828844627710466e-2,3.529012638254331e-2,5.163595191860153e-3,0.13999829363048413,0.16665750033318552,0.11134017805010321,3.6978294785090904e-2,0.1264695293505007,4.961863216307538e-2,2.1110295657230767e-2,-4.555907649447213e-2,-8.978872640753531e-2,8.605546872046876e-2,0.13790262225560354,3.3619107975343563e-3,-0.28318205663263196,-4.740077889366355e-3,0.17424659326867828,4.575759632811329e-2,-7.293696359315649e-2,-0.16866267744808894,-0.14752284282903258,6.106644856245793e-2,-1.9024145075929456e-2,-1.1615266352714742e-2,-5.221516945228075e-3,4.400238727704918e-2,-3.561562851950259e-2,6.824369700680611e-3,-8.508556790270544e-3,-3.662968312643644e-2,1.8645659138021197e-2,9.74582830227333e-2,0.11746099929335203,4.8873015806606114e-2,0.15574700499505847,0.13061269176589485,0.11486978255282777,0.20638438144319218,0.18718785736779436,0.24110421013514302,0.20216361047593967,3.527783023880106e-2,-9.8171984003923e-2,-1.99396510738769e-3,0.2221385713311597,0.12127884655301982,-6.633802270291247e-2,-0.12928179524051192,-0.1676926818390535,-6.187630963384509e-3,2.43485442995807e-2,-2.0552783736611725e-2,3.954537682446905e-2,1.6425951173340103e-3,-7.260814738324166e-2,-2.112683491301794e-2,-5.646272586434904e-2,4.2032722782601685e-3,-6.171202071359433e-2,-3.485727882469674e-2,6.810604694300393e-2,1.912052874149584e-2,0.1984499168827084,0.24168002858034618,3.70973044068149e-2,8.227106010956155e-2,3.8363215672651045e-2,5.491949107720962e-2,0.13352344238337674,2.5670903800227875e-2,-0.22910178099254566,-0.17944774625028692,-0.1261071286723227,-0.18569717308208036,-4.9221841193375804e-2,-5.3828275116495176e-2,-0.1333104628923735,-7.425407209902171e-2,1.0243509286055311e-2,2.1008020068368743e-2,8.20173075274982e-3,3.787923541222045e-3,1.5389421156675916e-2,-2.0048587193220703e-2,-0.134027446554175,-1.300910160813469e-2,-0.11165226858058817,-0.15957039986619914,-5.2604672986066234e-2,5.239607059999417e-2,0.1897931988950042,0.11103464610774429,8.237619366402653e-2,0.21114097034001228,0.18465320801780796,0.19947181550915516,0.14893920510315442,-3.320941033249082e-2,-0.2704011057182758,-0.2393355082972166,-0.2956739345772612,-0.4424952793082799,-0.1706874419557374,-3.0611985362170146e-2,-0.15930443721568666,-0.1118223727304561,-3.6611169443650844e-2,2.2871715204444764e-2,-2.5487007663652333e-4,-4.0449345499216735e-2,2.35737433706585e-2,-5.362107331056822e-2,-2.5669876767193344e-3,2.833981732733873e-2,-3.331651210916983e-2,-5.949506480691321e-2,2.549919536346786e-2,0.113261787146326,9.053795237336189e-2,5.115840839176976e-2,0.17191050722581525,0.1698689283302616,0.1830126841692686,0.26611057338006117,0.19185167952629684,-8.31325871226978e-2,-0.1774067842843573,-0.1589847408445004,-0.22644529786652245,-0.4551469398777833,-0.3055859159118262,-0.14066231628828513,-0.256016481274485,-0.14442048566506402,-1.0767154226536567e-2,3.482697997292913e-2,-2.585219691873363e-2,-1.6967369118758457e-2,-5.409571097514758e-3,-2.9291603931547686e-2,-6.866596683152056e-2,-9.218738173862036e-2,2.1312908458568366e-2,3.709681383498481e-2,0.10905938188550926,0.31688129115381075,0.17273127709891006,0.12658411180813686,0.13763686969213862,3.812571474070988e-2,-9.67214232168911e-2,4.0543531865365995e-2,0.1949069764498741,-8.821718788445393e-3,-0.1974911613097437,-0.18018066517223558,-0.338222811090265,-0.41781237334187354,-0.37658117125601803,-0.2960183229550685,-0.2654431616792722,-6.489397444021543e-2,-3.1612972351562324e-2,-2.599453501524158e-2,-1.0149657323005404e-3,3.2182190924443736e-2,-5.1080885812941075e-2,2.9052472279611784e-2,-1.8447804917195765e-2,-1.7088668492448666e-3,-5.031440388032323e-2,-5.817075368784111e-2,2.8022642154605985e-2,0.22166259285976914,0.1286967709518151,-9.463340317516757e-2,-4.373247699505722e-2,-8.431281612692727e-2,-4.2161425404313745e-2,-7.649241238755117e-2,-2.935461556916209e-2,-8.886322217258485e-2,-0.15306207999117882,-0.2526919150929489,-0.38886684164108876,-0.32333984956867207,-0.3959354167921984,-0.3349812023001586,-0.18572225122501013,-7.574137337267758e-2,-1.2712329967388383e-2,4.5920824594687805e-2,3.4536181842085734e-2,4.857592251018594e-2,2.9038097282986907e-2,6.88629716918637e-2,0.12403711439139117,-3.518286826567349e-2,-5.575370681768673e-2,-6.819873796273866e-2,3.171287073474348e-2,0.21685633460740392,-9.606199254328754e-2,-0.26478173318149395,-0.1545468091311532,-0.1491945785071343,-0.16700496470420884,1.9122995608788662e-2,-4.4772264382143025e-2,1.1100885578989621e-2,-0.11562985525997108,-0.23537386182344516,-0.21439302633752078,-0.18593273404928398,-0.24196635690317828,-0.14455229227467792,-0.19102330026897607,1.647672251606584e-2,3.603946425502828e-2,1.2318057504246123e-2,-2.5914235265217418e-2,2.1227904751497592e-2,1.4010224879115355e-2,0.11031892112792246,0.12226956592881337,1.862130769181336e-2,6.1139587783937195e-2,0.1702476340914572,0.15744930221387526,-4.858763684866407e-2,-0.17683367324412322,-0.11361246251275829,-0.13650593852450338,-0.17319161708187378,-0.18045377765815793,-0.1644294689340823,-0.11242759400068188,-8.791086794637151e-2,-0.2650574031569851,-0.2980467391997408,-5.045278367385177e-2,-0.16615906506296926,-0.1820990950392831,-0.11343887408395227,-0.2611280164948951,-3.037130713903518e-2,5.584778440045863e-2,-2.600643551695135e-3,-4.595824972145522e-2,3.381022640697606e-2,7.821300336276166e-2,0.227124906615483,5.9790098470056105e-2,-1.7701825810496326e-3,0.1524592496528504,5.657425177664355e-2,3.0921659530948612e-2,-5.993221508332117e-3,-1.730242760733672e-2,4.4804147919078684e-2,-5.100254465943058e-3,-0.14781418014320152,-0.20185814958227685,-0.1397370032452129,-0.1523491769155402,-0.21304207069485612,-0.30090445195003623,-0.1927576733874727,-0.21858242798409855,-0.11299629685000652,-4.1177035067699125e-2,-4.136480786787167e-2,-0.16894814640360745,-7.998774339062228e-2,3.947532047465027e-2,-3.122578802594097e-2,-3.4909905236116555e-2,3.7983535934042065e-2,6.575368830941868e-2,0.22204115224824877,5.3053165800940154e-2,-8.431191164469659e-2,-5.1751558002108615e-2,-0.26825296907191387,-0.22273921056977472,-9.157384509839664e-2,4.80311124880793e-2,0.1946232570658067,7.72448886611104e-2,0.10060182469510011,0.15673867527647511,3.6465352060057694e-2,-0.13046823218030254,-5.9453623228251075e-2,-8.165495368700147e-3,-6.900394461009668e-2,-0.13503665423584177,-6.1101982000034964e-2,9.730100987345758e-2,7.878227706462355e-2,-7.226444522879681e-2,-4.038553392045947e-2,-1.2883382053010352e-2,6.6542218939587075e-3,-3.4187549195128886e-3,2.4754811759254182e-2,3.3569225078196555e-2,9.292503673440666e-2,1.5692607862392138e-2,-0.1814439890097635,-0.24972456844825036,-0.39414759143215256,-0.2385641070042846,-0.17409467656894254,6.997199587499402e-3,8.349455112318983e-2,-8.990620498004984e-3,0.19413750639421928,0.19193369887977824,0.22949541970967474,0.1331181682034287,0.10326363196627214,0.12484576533397727,1.6980419474436247e-2,-2.5959626320894838e-2,5.36123292049061e-2,0.18439150546827723,9.092447091820212e-2,-6.63953951995806e-2,-2.1513705017165794e-2,-3.082222297444307e-2,1.6577544629328828e-3,2.6343396064398367e-2,5.269956257606232e-3,-9.748571380258061e-2,2.9386306638881404e-2,2.6724607386736755e-2,-0.15071197752819018,-0.17049136294922645,-0.10725027266630453,-0.14509628807416675,-0.1955672563602667,-0.12924364881350534,3.379458705365306e-2,1.3150554261768366e-2,0.2414323243184097,0.26823299931186384,0.1829475438862376,0.22736794325147278,0.147067043501766,4.8150170905843954e-2,-5.0693857675812595e-2,-9.05627713825154e-2,2.533646111065462e-2,5.9570036034056424e-2,-5.1532876369744116e-2,-0.17861019892969204,-8.25916997712486e-2,1.4563864072523738e-2,-3.8539216847264274e-2,-3.578476198492057e-2,4.2947157667190795e-2,-5.793855140161876e-2,5.835245754988291e-3,-4.171480531098595e-2,-4.872062776391798e-2,2.2827880879642447e-2,0.18346088749392891,0.13076808019791802,2.5460334980188255e-2,0.21115392282554052,0.20914031171741843,0.2309584271066196,0.33076921053963276,0.27125082132440687,0.16886294555906337,9.862129425225818e-2,3.390773687247799e-2,-7.943779443048744e-2,3.165167183267715e-2,8.735980204309995e-4,5.546668022866416e-2,0.1391885956928458,-9.107067055489915e-2,-0.1449620080991154,-0.10666654721921458,-1.5286629341297436e-2,3.2603330645676123e-2,-1.4604037099906994e-2,-2.8345931156082187e-2,1.873514737581204e-2,-6.659340012376995e-2,-0.14997864753747114,-9.598863760214049e-2,-2.0351264758131076e-2,0.2264348367599121,0.281070451475348,0.12717268685887642,5.720162261066413e-2,3.131264216281566e-3,3.4219363905592576e-2,0.10702943501669163,0.10857404634761632,4.874915657741757e-2,-6.0025273126664676e-2,6.585974014871408e-4,-2.0759343589982663e-2,3.223974296541313e-2,0.10540631256018825,0.11147722272794376,0.15032614179969064,-7.625344355058728e-4,-0.1584998560544799,-3.342202918921727e-2,-2.1851308730400396e-2,1.7812696231823414e-2,-4.297345366100939e-2,-3.567852681997861e-2,1.0552169992063177e-2,-0.11832607230378288,-0.17570900490834443,-0.1200236398926797,-6.486970853686445e-2,0.204421438097666,0.3160209477630007,0.18763962514654048,2.6817350126535924e-2,-8.97651421971327e-2,-4.235824872835299e-2,5.3969192866157815e-3,-0.10020400644586855,-0.10476121777166678,-8.748811487796963e-2,9.57147569090402e-2,0.21230872165295872,8.221023023549182e-2,0.12570229283716128,0.17085499236558316,7.549598631572518e-2,0.11300350876637097,-3.7285682940038445e-3,-7.553769576833586e-3,-3.835564538052893e-2,1.1663926706528658e-2,-1.3704046426985299e-2,-4.202930898889372e-2,-6.759280336470011e-2,-0.10187117172254083,-0.17426893743440033,-2.7177436192960185e-2,0.10953094665935964,0.12270913045574652,6.026420987902483e-2,4.1005140335582425e-2,-5.734632640863261e-2,-0.13303760212724258,-6.120103837140287e-3,5.027131530466795e-2,-6.713791909785967e-2,7.233739474273054e-2,7.400276434177942e-3,0.14875095090931933,0.23496396512425424,0.14025971339108698,0.12161111575593442,4.156691109066686e-2,1.2099003852845798e-2,-1.0925428969500769e-2,-5.5365481931269965e-2,3.852779889266422e-2,-1.964061965077565e-2,-2.0415048618256e-2,4.421763724685148e-2,-1.832824397215767e-2,-3.833376134766569e-2,-2.0294909542505856e-2,-5.636495861535926e-2,-4.0048966878903525e-2,3.078981599777977e-2,1.5427596529474605e-2,-3.334713378719007e-2,-3.6659223374042885e-2,6.400943872985961e-3,1.5429545651144657e-2,8.899141295323658e-2,8.716127538058745e-2,-6.98759374580774e-2,1.6714592621804837e-2,4.715880764951731e-2,1.2951262915663826e-2,0.10618617901691997,3.2987414058470464e-2,3.886719015241791e-2,2.0089695677174224e-2,-3.5570265527184466e-2,-5.592560133269479e-2,-1.1421533123523814e-2,-1.9718992121757106e-2,1.1317207212981279e-4,-7.711141711796724e-3,3.775990710185493e-2,-3.223513223003588e-2,3.3404063778815815e-2,4.1866723737919304e-2,2.8687794485660487e-2,-2.8269675120791227e-3,2.5853099060370886e-2,-2.7990957446481387e-2,1.1535550317232038e-2,-1.4252070860173554e-2,-5.074668355043884e-2,-2.5472712944905482e-2,4.6456770342918535e-2,3.448386513330869e-2,1.5291567057131208e-2,-7.434205490388769e-4,4.5959840140973214e-2,1.9824831840563124e-2,4.548136162383739e-3,-2.7973210509069545e-2,1.4682354130571496e-2,-4.1800251983883756e-2,4.1218732651458326e-2,2.8960341814355143e-2,2.6231855767633896e-2,2.3643836707712376e-2,-3.272289116299527e-2,-2.8757476957918485e-2,-2.9669999745971825e-2,4.153375260205597e-2,-2.12106466635343e-2,-1.810688288833491e-2,-4.335103786778547e-2,1.8399589400897323e-2,-1.3396690510461726e-2,-8.45854889909504e-3,-2.0495676252133343e-2,-5.652311154026497e-6,-3.099802277077237e-2,2.467635779564281e-3,7.28393238415216e-5,1.1407909952282691e-2,-1.1025126400793004e-2,-1.0762360464029952e-2,-1.1674668326354576e-2,-3.8388111630223436e-3,-2.4063004861916943e-2,-2.941786643970919e-2,3.6841532952114724e-2,-1.7982056135975606e-2,9.940081186394655e-3,-3.0127155013836327e-2,3.907593763734391e-2,-2.4118164930884256e-2,1.6676279712237136e-2,1.7574590667318798e-3],[-2.89004475326971e-2,-1.7099147173811006e-2,-1.7456963752418703e-2,-1.1632341434269168e-2,-1.0499904529718137e-2,2.977906674653569e-2,-2.7304306056947652e-2,2.363708491419196e-2,-2.04131885599354e-2,2.5444548584561223e-2,3.1112232593374426e-2,4.621657888987776e-2,1.4388403791034335e-2,-5.16393818574536e-3,-5.149247680615749e-3,-4.895509697230906e-3,-4.6288467228428165e-2,-4.3430061757974446e-2,-4.276408102347538e-2,-2.3024237544396135e-2,1.838270460362747e-2,-1.9139939016914808e-2,6.9856278588391815e-3,1.9814003108384055e-2,6.826241407339327e-3,-2.0877045690021603e-2,-2.1579012789543148e-2,-2.43464805150517e-2,2.048846141174177e-2,4.2328587154213344e-2,-5.983154525439023e-3,-1.816557921436861e-2,-9.296855921372834e-3,3.7504301528253736e-2,-2.9414885262805035e-3,-1.1375224460264842e-2,2.8303478130344603e-2,7.303467950969973e-2,7.163030333407013e-2,3.154506485844596e-2,-1.576959903659033e-2,2.9953406082005765e-2,-3.45606054917112e-2,-5.441949986380312e-2,2.5636609212953836e-2,-4.5619579753738766e-2,-4.9970509158378654e-2,-1.4334224077275562e-2,-6.609500746432152e-3,3.841616809851781e-2,5.997234124194442e-2,-4.202409747369096e-3,2.116459212028775e-2,9.789569032620548e-3,3.485070597911865e-4,-5.2843559949701e-3,-4.777927259270929e-3,-3.0308599276732857e-2,-1.4094760025227865e-2,-2.3433060236437552e-2,5.950960383773115e-2,7.821586166454614e-2,2.815123434469965e-3,6.407233633257278e-2,0.1946040612160208,7.601592067051724e-2,3.0823649002560034e-2,-2.523139219336703e-2,-3.675458202220227e-2,-3.957951536808712e-2,-9.101200330275086e-2,-0.16629060633017498,-4.4117172376657146e-2,-9.067810866187635e-2,-3.014616876979384e-2,0.11511331180805355,0.19116080707999322,0.1988685757408281,0.13581595879981231,5.106038462179778e-2,2.910748880348632e-2,-1.7403495296594768e-2,-4.7038804113965334e-2,1.5918537641587332e-2,-4.606273886505593e-2,3.7967614560890234e-3,-7.193463024986971e-3,1.216144322273709e-2,1.1136906259817397e-2,0.11509136374521176,2.155061177614996e-2,4.9524063018152244e-2,9.964531261356316e-2,2.315809849994184e-2,3.7340196403396544e-2,1.6670545559860788e-2,-7.931177766796377e-2,-0.18086921294792022,-0.13733721924407247,-0.19481471499901848,-0.1331980579021288,-9.229772251077656e-2,-8.502602865812532e-2,8.764055925820559e-2,8.797843092789823e-2,0.10875280366325762,5.229394144069729e-2,1.8657051660307682e-3,2.1653317752851186e-2,8.470138104112006e-2,-3.406573700216538e-2,-1.767768772197169e-2,-2.446323767013951e-2,3.93507778599017e-2,8.465822071526499e-2,6.20329544645656e-2,2.14048118081752e-2,3.166634372838872e-2,-3.979223352294002e-2,-1.2202450200117072e-2,5.520104853591122e-2,1.199577461961419e-2,-1.6123425329968618e-3,1.8394053533934505e-2,-0.12815007146136184,-0.2339429751960078,-0.3005429251896661,-0.3067936149533884,-0.3735140815229156,-0.16016642982956036,5.92243127452915e-2,0.24169518631540363,0.22845423792033082,5.280367194234373e-3,-0.14777066591409188,-0.21268349493208047,4.353838230067749e-2,0.15148239843564582,1.22382340099049e-2,4.4516951809695164e-2,3.376162147252113e-2,4.063372421363527e-2,3.101119491780011e-2,0.12457901634366704,1.0789094450220877e-2,-5.466885850808518e-2,-8.020435216504929e-2,0.12697253918699514,0.10467363299122091,8.26441811175797e-3,-3.869219761597187e-3,-0.11505232674789845,1.165054767432633e-2,-1.8168961622872057e-2,-0.14556755596791907,-0.2829711281766855,-9.395998887738968e-2,1.8718389316418147e-2,0.1724734310971636,0.18253853555456181,0.2720094928161898,0.16137345448374668,-0.10610538425989759,-0.1692657662391148,7.32814527332167e-2,0.1206659494490377,-1.712999534258173e-2,-3.762873476330433e-2,-3.3346373301902495e-2,2.687831231613271e-2,1.2783473306781704e-2,5.7089914997827396e-2,2.4667184462100738e-2,-7.270470015622374e-2,1.1064463216556369e-3,0.1598744799798916,0.13376550795832698,-3.7680489805516866e-2,-0.21510567502058242,-0.18695054748450118,-6.870722235603915e-2,-0.18177559203728264,-6.522330524307397e-2,-0.13612099960060073,-0.22528018983483566,1.5041720567251574e-2,0.2497560463846418,0.20490346255175382,0.23970210953952412,0.2551854514372873,-2.7885642957695154e-2,-0.1088058897193364,3.2098339425969555e-2,9.548934085561467e-2,4.606691694363593e-2,8.063042032312452e-3,2.8934428924833947e-2,4.2607645303227006e-2,-1.3148752278887996e-2,2.9786450073607855e-2,2.1433904971544654e-2,6.744564734399457e-3,0.13431901633541693,8.791468036519676e-2,-4.428307215954281e-2,-0.13943772308788932,2.1534431459855258e-2,-2.279254142712593e-2,-0.11505892093636585,-0.2431154529825464,-7.610228045341716e-2,3.844046498435637e-2,6.872265988307381e-2,0.14665413725455737,0.3212483767799619,9.213105312338064e-2,1.1843208968927928e-2,0.26980319107468925,5.305690055453831e-2,-3.611454392206774e-2,-8.915499969124795e-2,2.999301588699004e-3,-2.6450210554790875e-2,2.502296404362782e-2,2.5137765102366122e-2,-3.012684429904735e-2,0.10423532129625424,0.12048926012133525,3.6714054016703614e-2,-5.632905379557942e-2,7.882678569280606e-2,0.2575300649753766,1.8055774350116117e-2,3.182183811974816e-2,8.84671937723278e-2,-0.1008158742383709,-2.070427571910921e-2,-0.11462960546995048,-2.4719671930054553e-2,-5.070568618959808e-3,1.9274975795565204e-2,6.0029967234952325e-2,0.27728026344515194,0.16740564164513919,0.21378753297055084,0.29443870985389026,6.687971670114856e-2,3.015806712757038e-2,-0.23281463390824028,-7.485395290656634e-2,3.638769851659332e-2,-5.986619009887205e-3,3.315090660834462e-2,3.308701413242887e-3,0.201232583687076,0.23429049985380915,0.1430606524549746,4.814637304868127e-2,8.873501804003905e-2,0.1978549264592344,3.131365343209174e-2,-2.3654476208731887e-2,7.611450912568402e-2,-0.1939197515973222,8.112922390007289e-2,5.543839204853514e-2,0.1115403581201006,-0.21047120834365443,-0.2415025988081148,-6.310959207698766e-2,4.4128031751158356e-2,4.23257464608481e-2,9.03103359863223e-2,-2.6353041851480373e-2,-0.1071778240532922,0.1462427468567622,7.990170885745172e-2,-6.950097009747694e-2,1.1386628543571257e-2,-2.1463941126980638e-2,-2.5006209179632838e-2,5.3105991265407014e-2,0.18358001094273663,0.1772397383784025,0.10437517424347033,9.111954491478963e-2,0.3540214028753254,2.833708976126698e-2,-0.2575537641692034,-0.2124141074443236,5.625099149519538e-2,3.2136957415991874e-2,-3.289698670405824e-2,0.3330697161301338,0.3136727065998379,5.461846678671419e-2,-0.14728187447658836,-5.8292979959749504e-2,0.1246108190015708,0.3903170676630377,0.2850253646849539,7.417891367594981e-2,-8.463897923345025e-2,-5.082412632677911e-2,0.1465873489867432,-3.815822521343607e-2,-2.4963338931575933e-2,-8.967426383757299e-3,1.0931429163009532e-2,3.662359598331885e-2,7.383930408807876e-2,-5.8841478100828716e-2,0.2918466362293734,0.2642969458229729,0.22781667295275548,-7.746474722221461e-2,-0.20772295080944264,-0.1699310375007465,6.003508468425876e-2,8.394561619828668e-2,1.1970756203230026e-2,4.783294189810633e-2,-2.8762961378190507e-2,7.366094715956106e-2,-9.80169835779911e-2,5.128511449869359e-3,0.11835085785612562,0.5062725582436843,0.3066492708128933,0.24962571152366603,-7.346438657786247e-2,-0.16755670427140903,0.36886422847352507,0.15161564959772847,2.8630616045484454e-2,-6.464011794272607e-3,4.2701567031699916e-2,3.357026322218319e-2,-0.10037529376297875,-3.206032301185408e-2,0.3085081653816324,-1.6906265765083778e-2,8.630656414746339e-2,-0.16639502161445327,-0.2690711739047359,-0.22271854804601682,0.11392378105408553,0.1457145870295618,-0.2019668049767707,-0.24129537469496065,-3.487487201668486e-2,-0.2259180782012498,-0.16679157774610484,-7.661590447379273e-2,0.27066908896649183,0.22371689781118412,6.722482892572294e-2,0.19592657830911095,-0.11648655433344518,3.47909477874154e-2,0.3271733258086719,0.1807043610748637,2.9310757428110703e-2,1.2285998699068044e-2,2.5880947247361247e-2,-5.4702640480224114e-2,-4.661803641710871e-2,4.667124141695272e-3,1.746704378903984e-2,-0.21902628968410692,-5.048142009065725e-2,-0.3530700554448364,-0.3323232399024331,3.5502233633366145e-2,0.2093091498172163,-4.212976460857512e-2,-0.24501861332584854,-0.2780643360609137,8.10258279614945e-2,-6.125575484660636e-2,-0.10140286131082217,-2.885750176899674e-2,-7.913603075177843e-2,-0.23088691551265755,-3.892006369628126e-2,0.25619408690704015,-0.13534633140673022,0.2739264343609296,0.4921814394468351,0.24585146551951165,-1.2181010272546564e-2,1.8014700423361847e-2,2.7075912841327873e-2,-2.3326643930970056e-2,-3.177235913538066e-2,7.423762591602817e-2,1.813660477345977e-2,-0.16598216700990032,-4.571949883285633e-2,-0.3594928961542163,-0.2716266965934438,-7.151929624930352e-2,1.793847443497572e-2,3.181606487424814e-2,-4.826837673334409e-2,-0.12603774804854326,-1.7740292897033764e-2,3.471634419399279e-2,-0.11900197786601466,-7.170014159028701e-2,-0.2606689555841209,-0.22665135559792898,-5.124541748661821e-2,0.1857475014174656,-4.209600549137224e-2,0.1633300894161224,0.436288858457882,0.26899203743086,-2.301755130784106e-2,1.987227581760694e-2,4.195360578262043e-2,-6.703009106890973e-2,-0.18289670535630492,0.18033638429263005,0.14159799087974825,7.2028794124621e-3,-0.1758600996121053,-0.2675822820510559,-0.1767882362382208,-0.28741579827292457,-0.20533979698932517,7.031081465878566e-3,-4.789435317129803e-2,-0.1490447408309734,-0.1334404451221242,5.377513010196286e-2,2.034162994271129e-2,0.32290953083385193,-9.420335504418885e-2,-5.268600684265581e-2,-0.11544109457475984,-2.113250468728416e-2,-0.11559796088917111,0.232247402012523,0.4476038990977228,0.11355736673378641,1.2476514845593575e-2,2.4667825458354734e-2,9.933284945261238e-3,-3.6073542735281156e-2,-0.14394325871835192,0.12736904101577623,0.21909936394719493,-8.717556792601892e-2,-0.17331996950233752,-0.2608268544032484,0.11542110713876255,-0.12255834279820335,-0.11746749768436589,-6.843696616731246e-2,-0.119920098609049,-0.181064571168697,5.453024000512286e-3,-3.397789583718919e-2,0.26438578491084064,0.406564399315535,0.13885055714452954,3.715887925085734e-2,-0.12906243171196144,-0.21479421548370445,4.4808966801684925e-2,0.29495462160010755,0.2602930189165782,8.695524618032474e-3,-4.534984374751796e-2,2.5002413860027117e-2,4.015823243044445e-2,-4.309586990404659e-2,-9.206884385846605e-2,0.1350678897006261,0.3950232758510221,7.92892359620856e-2,-4.188054786783469e-2,-7.987350322599292e-2,-5.833719240781008e-2,-0.25151032991268407,-9.018423651878535e-2,3.5295279104441196e-3,0.10400869797721592,0.10955878273982687,0.19924472984587535,0.13904644131755353,0.41647823451395766,0.3497077188720117,0.24975357608918577,0.1780051219023083,-9.903855945545792e-2,-7.305532630101183e-2,3.815706493450769e-2,0.15669174090441892,0.1214544738422325,-4.407159908933493e-2,9.721509194424069e-3,-4.0230509737473115e-2,-2.6374119453084224e-2,4.217101996485465e-3,-6.52928960402724e-2,-0.2047324319338714,-0.11148131051851237,-5.2875485625389296e-2,6.303314364421947e-2,0.34589020692058375,0.163049001387956,-0.12622010292943162,-0.18572080459168946,-0.1674244667159686,0.12836995069637752,3.8473355320217124e-2,0.2114939317521535,7.259165260973777e-2,2.2591149098471302e-2,-3.190337413760945e-2,-0.1694409591976258,-0.1524610496058962,-0.21275715396931646,-0.15882210563854485,-0.1328447744643189,5.4280745995224824e-2,-0.18053120978553797,-9.84629198326642e-2,-1.3550253439518907e-2,-1.502376511667461e-2,-1.80352263974253e-2,9.904710519259539e-3,-0.102678250686583,-0.2917086351041791,-0.4962344862071419,-0.27837656147581186,-2.5817081202411798e-2,0.17816177444318035,-2.8297136095763267e-3,-2.2112620577272916e-2,3.977607303970218e-2,-1.003499369968333e-2,0.19333675015963775,0.28960278494271813,0.3834648734918456,0.20099386999502306,0.12247954864233683,7.419200295854399e-3,-7.73109037227122e-2,-0.2884583824078388,-0.1637749890337046,2.949999534037306e-2,7.007189082398704e-2,-7.673699244286003e-2,-0.28649785368826486,1.5862854307592215e-2,-2.8476127116260297e-2,-2.7477092343004255e-2,1.651586059628255e-2,-4.194971535306551e-3,-8.936921157616066e-3,-0.1736006095095376,-0.14291965091975373,-2.3677505774661958e-2,0.18146850913971974,-9.743856242148037e-2,-0.3797893553257728,-0.27621811295963267,-0.10167557346284195,8.459242185626087e-2,0.10865371432697243,9.012309750340099e-2,0.19299399752270288,0.20043166502187498,7.894972927953331e-2,-1.3905984932644166e-2,-0.13089681240958587,-0.16028122904738887,5.0503489756448985e-2,0.2418446244226108,0.14747163838993255,3.784849270977452e-2,-0.12527318676815308,-3.889262898856428e-2,-1.4817804961937518e-2,-1.757279960504179e-2,-4.476104720771876e-3,-7.513908255563892e-4,3.576109299573469e-2,3.279330791254401e-2,6.295250519494398e-2,0.10025178483957463,0.2519595685584073,4.51593602348312e-2,-0.13689755419115374,-0.16938644783977044,-0.22039425092248768,7.630618795602751e-3,0.1816100857756067,0.16042438768767125,4.918949774302556e-2,0.1295479443942849,6.651762834963779e-2,-5.1874036775836e-2,-7.04118235727397e-2,-8.758953548941463e-2,0.1292611762045096,0.20673633214527956,4.156016561316304e-2,-0.10831215572247023,-3.509008161981837e-2,6.233033937213238e-3,-3.9616239452589824e-2,-3.1367817097438314e-2,4.1633738205544515e-2,1.859746972628913e-3,0.10641066595609835,2.6889402132910644e-2,0.1668920282984976,0.11674283241999843,0.21680496080723088,-5.089583223484168e-2,-9.280249622555246e-2,5.823276564848088e-3,-4.612385797498497e-2,1.3915427746658448e-2,-1.651943458500442e-2,5.493573098907107e-2,5.7922911089673984e-2,0.19525761081842535,0.29588084560637934,0.1042120823854823,9.235244680750006e-2,0.1550557394671336,0.25722261573421323,0.19736033518837023,-0.11424282862767515,8.20993335704527e-4,4.58617335183918e-2,5.5752385472619646e-2,4.290375833013477e-2,-3.849096065674743e-4,3.5057064812785844e-2,-3.340486883282323e-2,0.14266665987859053,6.0583052791371265e-2,-3.468625307354686e-2,-0.2455208328437306,-0.18886611116498764,-5.303740165050742e-2,-1.9459141572758736e-2,-1.82728530225865e-2,-3.1287940920794496e-2,-0.10515852680984564,-2.7253845067851296e-2,0.11067710024476575,5.429130800211581e-2,0.1930508256389305,0.25047288347315527,0.11435267366771014,0.1551962991425369,7.634373737076179e-2,0.17058389611286234,4.842513519099073e-3,-7.735015564624556e-2,-6.662881985229713e-2,8.489521722562987e-3,-1.9744139045926503e-2,1.3389800629012644e-2,-6.662109815363285e-3,4.2410221948022964e-2,-1.497939580776834e-2,1.1120362173055079e-2,-1.1088050753379796e-2,-0.11792251647598492,-0.16485257455920574,-0.19955490175689472,5.935334318482798e-3,0.25107339473722007,0.18112583504301608,0.10351783578464377,0.12502211866883525,8.777790203262956e-2,1.754918478528841e-2,4.945575659177121e-2,0.26972844938228213,0.2589169193188837,5.4628137194152646e-2,1.0628121175486109e-2,3.118829598437825e-2,6.824179797285959e-2,-2.6391760936213277e-3,-2.106911061547418e-3,2.5142365436864992e-2,4.940899183345231e-2,7.392307496717823e-3,3.288124835775436e-3,-2.3991162229974425e-2,4.36615064566423e-2,-3.798286620615538e-2,-6.333738447421017e-2,-2.71935345331544e-2,-5.443819086723588e-2,-5.011709445542654e-2,-2.7150563983083527e-2,-6.812058114117492e-2,3.0749365809502324e-2,-6.555488876931903e-3,7.45862754338752e-3,-1.2862686308220246e-2,4.055811495044028e-2,6.805681454937347e-2,0.10740646120628304,0.22042094592151587,0.22034922466060247,0.15302403951854923,4.9935597874831754e-2,3.498736349087023e-3,-1.5376298781062111e-2,-5.9929838932209725e-2,6.007633218619933e-2,-3.18374649752088e-2,2.0992059570096366e-2,-2.6799830082133186e-2,-4.253452493937618e-2,-4.568054130019185e-2,-4.476287869940943e-2,-3.207306837541864e-2,-5.45183201321888e-2,-3.883621347586291e-2,-3.589731704161991e-2,2.9969307251730772e-2,4.7477848645410235e-2,1.7337952591510743e-2,-7.623635506651821e-3,-4.2270071364720864e-2,-2.9287453618512768e-3,-3.383329068231987e-2,4.4397388902471226e-2,3.546942123156484e-2,-2.523360531874373e-2,-9.48476759512036e-3,7.073838774404106e-2,5.1485752170005256e-2,2.4051958688814202e-2,-1.31906485670939e-2,2.2490237532563845e-3,8.68439865171006e-3,4.465058734520326e-2,1.431327894190274e-3,-1.2144958427720775e-2,-1.8614504871453982e-2,-2.8832136142971865e-2,3.62792097451865e-2,-3.608003748797083e-2,3.565139660145466e-2,1.1192685953061813e-2,1.3871736949620043e-2,-3.771707320660469e-2,-5.039653021799034e-3,3.2492533772120434e-2,-2.0849631930769424e-2,3.894018273160721e-2,1.7648982751046562e-2,1.3837797481761883e-2,-2.5207240918572677e-3,-3.852821581627067e-2,2.531342526269071e-2,-1.0401493579929916e-2,4.5365169107564274e-2,-1.690340727350479e-2,-2.9381925257936505e-2,-1.4170624626702225e-2,-4.132245810633172e-2,2.7950091143574277e-2,3.7497687289275106e-2,2.5700447404251574e-2,7.027758404408625e-3,-2.5527524390889875e-2,-3.214120809880469e-3,-4.4523568233706116e-2,